256 100
00 -0.5604012 -0.65260744 0.35348096 0.38394108 0.15308319 0.6713207 -0.760945 0.54401255 -0.6100054 -0.546292 0.98365724 0.9946559 -0.8809506 -1.7513552 0.19276401 -0.43653274 0.36979145 0.35564896 -0.43898556 -0.26740596 1.5778576 -0.435601 -0.14986663 -0.40073076 -1.5115138 0.46377558 -0.56880623 0.3812839 0.50898886 0.8025212 0.5145909 0.18291059 0.8343877 -1.1661664 -0.49123544 -0.6076524 -0.92855704 -0.07000626 0.6189964 -0.3179473 0.058456358 -0.692468 -0.5859538 -0.39069694 0.4689827 -0.91693616 -0.19348672 1.6290907 1.1009253 -0.025276996 -1.9737675 0.54992217 0.5648414 -0.18741898 -1.2000118 -0.9789971 -0.08084341 0.22925061 1.2360443 -0.21259479 0.40560445 1.1190475 -0.12887433 -0.26327074 0.9748351 0.06376608 -0.94839865 -1.1979905 0.040508308 1.0667795 0.4650144 1.2104652 0.70991033 -0.8382113 0.103771225 -0.006857072 -1.1066074 -0.62821096 0.12335218 -0.5533481 -1.4976767 0.26757228 0.44104525 -0.29615402 -0.4362445 -1.229828 0.5415153 -0.4852424 -0.029751811 -0.9012645 0.14016125 -0.083795905 0.4778149 0.68981063 -0.43527 -0.622324 -0.5306283 -0.2746361 0.83403254 -0.38333678
89 -0.5433078 -0.5265615 0.063531145 -0.19840182 0.44953153 0.42039394 -0.79299796 0.39482033 0.2099234 -0.44323087 0.9201113 0.35777837 0.8376655 -0.879467 -0.48303804 -1.3266382 0.66521925 0.86175627 -0.07220467 -1.3460366 -0.2517303 -0.17709821 0.23613955 -0.5088874 0.23409691 0.59952074 0.021747027 1.4056128 0.9930542 -0.28862414 1.1801121 0.7940298 1.4471564 -0.7288861 -0.5082002 -0.12463362 -1.2433019 0.5763835 0.49220407 0.5590416 -0.44827613 0.53540725 -0.10730027 -0.21951668 -0.4117524 -0.5735124 -0.46954912 0.477956 0.09364613 -0.68016094 -0.20850612 0.08371652 0.9569034 -0.013803624 -0.7659429 -0.121587574 0.20014024 -0.6345761 1.2101362 -0.77797097 -0.9600641 -0.8217359 0.34996808 1.1161469 0.60152215 -0.20045748 -0.3845842 -0.89667827 1.435375 0.36553204 0.98635167 0.5683364 -0.010910161 -0.22452928 -0.56723374 -0.16667613 -0.4592684 -1.6260755 0.33830553 0.8684464 -0.64958274 -0.38143623 0.41476896 -0.43752807 0.7051928 -0.38522586 0.38810694 -0.33292195 -1.1544077 1.696183 -1.35416 -0.585783 -1.1465672 0.20759673 -1.0853225 -0.99666405 0.27422982 -1.306654 0.022554308 -0.40534818
45 0.91607124 -0.21496235 -0.46396348 1.2055506 1.3887079 0.44860387 -0.19102228 1.8926516 0.28410214 -0.5268666 0.9146914 -0.4307196 1.2946037 -0.026248021 -1.2646669 0.5734163 0.12954637 1.2641182 -0.960081 0.12021965 0.065182485 1.0406052 -0.76195455 -1.1585222 0.69873625 -0.3024589 1.3959774 1.5082676 0.6779981 -0.8150508 0.9252219 -0.38651413 -0.51367277 -1.615953 -0.8966576 -1.0816466 -0.97458297 -0.19811533 0.924166 0.59035325 0.087737754 -1.4572977 0.71275955 -0.5691969 -0.42856792 -0.95900595 0.3559062 -0.71359426 0.9290604 -0.42139342 -0.6507354 0.07771464 0.52086306 -0.5659452 -0.4211921 -0.051271897 0.37471128 -0.23898159 0.9672026 -1.3845307 -0.3867251 -0.35582206 -0.6806495 0.22872126 -1.0994093 0.97494227 -0.5121867 0.11900374 0.108050615 -0.5015706 -0.8655395 -0.46547517 0.77922773 -1.0650353 0.48529416 0.25077298 0.379083 -0.42705613 1.6456467 0.28180322 -1.3520106 0.07844936 0.48375702 -0.73350775 0.6050302 0.124504946 -1.4929849 -0.40900296 0.538146 -0.4826831 0.23245536 -0.17088467 -0.067695536 0.8248987 1.3485693 -0.8600437 -0.6546341 -1.195669 0.297811 0.07623573
8b 1.2274092 -0.29575112 1.0982028 0.6037739 -0.09047141 -0.21476953 -0.74864954 0.21336538 1.3096594 0.4953175 -0.03381044 -0.6196499 1.6429294 -1.05879 -1.2975432 -0.2891411 -0.54723746 1.9647676 -1.549254 -0.5372326 -1.6908985 -0.3617052 0.31169125 -0.56352866 0.8297529 -0.16338213 0.5918175 0.95913804 0.4868346 -1.2059954 1.0392525 -1.1892369 1.0379391 -0.17192172 -0.14129238 -0.32994133 -0.49589306 -0.21995085 0.4110728 -0.40620497 -0.74728316 -1.0650119 0.31611308 0.26849663 -0.7829131 -2.1832922 -0.019371599 -0.8190379 1.2230232 -0.47082862 0.36278668 -1.3542773 1.4157416 0.8672947 0.47157145 -0.89235145 0.48274124 0.00623908 -0.20566435 -2.0915785 -1.1299815 0.56732035 -0.4709248 1.4332035 -0.49579772 -0.66486776 -0.42693114 0.57900923 0.084400944 -0.69936556 -0.09417093 -0.7131763 0.20751524 0.006748783 -0.2589957 -0.19166894 -0.3445921 -1.4537617 0.26215282 1.1687505 -0.98973197 0.067595065 0.09463755 -1.5159097 1.0049539 0.30215722 -0.0014826307 -1.6185598 0.18982893 -0.38188604 -1.1103605 -0.44309756 0.24894112 0.46061194 1.571406 -1.4771154 -1.3271196 0.24390672 1.2500458 -1.4692751
55 -0.4743502 0.4554495 0.6313192 -1.289271 -0.697118 -1.027394 -0.67146796 0.16967149 0.96676636 0.7625879 -0.87026525 -0.37586513 1.8195802 0.90031976 -2.680429 -1.0283877 1.3387799 1.1454176 -1.0724058 -0.318892 -1.5227023 0.32667542 -0.12773664 0.47660717 3.9702063 -1.3103491 -0.78182197 0.012991221 0.17037958 0.002819924 -0.038457178 1.1490159 2.1101499 -0.25877112 -0.5143386 1.0805339 0.2980875 1.3535072 -0.43926477 -0.37885386 0.10223165 1.4996843 0.5387619 0.5314549 -0.38369685 -1.8514822 0.052551955 -0.8805311 -1.0467732 -1.4137188 -0.7067975 -2.5141218 0.8712922 0.9516758 -0.048892103 0.10085888 1.9391489 0.33409426 -0.2815923 -1.286861 -1.2288854 -2.42976 -0.24700734 -0.22533342 -0.6971579 -0.30363137 0.94680095 0.43153703 -0.05194345 -0.4169543 0.6869041 0.57196176 -0.89560384 0.20035188 0.13526751 -0.8332574 0.8629364 -2.2602706 0.21600075 -0.15152276 1.1446803 -1.645281 1.1396784 0.115159295 1.4736519 0.29358912 1.3336811 1.542944 0.7036248 1.104137 -1.8711966 -1.8597085 1.0100753 0.71192724 -0.3994535 -1.5995501 -0.7028527 -0.45247382 0.7278797 2.1666238
24 -0.0057953955 -2.2238011 -0.84926265 1.482426 0.42333242 1.4620748 -0.8304814 0.136916 -0.74575573 -1.247985 -0.07496169 1.5431032 -0.20141526 -1.4889255 1.4336374 0.558498 -0.101918265 1.0254405 0.058569238 0.8937026 0.38476288 -0.7289739 -0.4199966 -1.008711 -0.8322554 -0.9228526 -0.29131588 0.3424678 0.59794456 -0.5992736 1.0954442 -1.2605308 -0.08059384 0.18429498 -1.9720228 -1.3071673 -1.9764395 0.9436248 0.41440716 -0.13141002 -0.268269 -0.96187705 -1.7608391 -1.3306645 -0.35901913 0.17276017 1.1806206 1.1967845 0.701924 1.2834617 -1.6003236 0.283369 0.5541525 0.20996545 0.19272393 -0.25474507 2.0833507 -0.9157282 1.9403156 1.5649343 -0.08340478 1.6067804 -1.8745825 0.99909896 -0.3141434 -0.8148658 -1.0222408 -0.37830204 -0.33158508 1.9868854 0.11036493 1.042197 1.6895617 -1.532442 -0.47290835 0.9174022 -0.27463412 -1.8380388 1.1137711 1.1141572 -1.3432739 0.3975159 -0.4817515 -0.8001968 -0.4266629 -1.0648917 -0.71867615 -1.3951178 -1.8479458 -0.8572981 0.30805293 -0.08303938 1.1747895 0.367312 0.20674804 1.2689035 -0.09618329 -0.62392235 0.89688116 -0.55332935
04 1.2575005 -0.551792 -0.8342307 0.20535642 1.049502 0.8938558 -0.86624366 1.6976897 -0.5170139 0.9647967 0.13074687 0.68226177 -1.0885321 -2.9175735 0.8641918 1.7257879 -0.094715856 1.7299391 -0.32715133 -1.2478241 -0.004836029 -0.70632946 -1.3064276 -0.7414968 -1.092471 0.9503915 -0.04493512 1.2663931 0.052168246 0.34302682 0.018162735 -0.45908076 0.80169725 -0.13472858 0.10147696 -1.7982639 -1.6009781 1.595722 -0.5356431 -1.0115302 0.020023841 0.19960469 0.070739985 -0.2368163 -0.37593108 1.2615802 -0.8460749 2.1501667 0.081822194 -0.78838724 -0.6376813 1.9001716 1.8837161 -0.2453658 -0.097498395 -1.3157566 0.37362257 0.5871288 0.2854612 -0.18866573 0.78364736 1.267786 -0.69855326 0.56714624 0.16903268 0.2458143 0.04654473 -0.1027552 0.8551681 0.9559201 0.21620204 0.5070599 1.9483788 -1.4139755 0.16868502 0.00473501 0.7951543 -1.7392992 -0.41135517 0.67722225 -2.4107895 0.33985892 -0.14251122 -1.789188 0.9968104 -0.4330334 0.46485797 -0.9527612 -0.29160413 0.46807927 -0.8427901 0.6882643 0.8110447 -0.70560783 -0.37542734 -0.04222682 -1.0304164 -1.4127091 1.4913607 -1.1381727
83 -0.15793803 -0.58006036 0.41577885 0.7695236 -0.15241279 -0.757333 -0.7580991 0.8210119 1.0302268 0.9232625 0.9630251 -0.75063664 0.36344564 0.7513676 -1.496748 -0.3353618 0.9857957 0.32857987 0.1253922 0.1410791 -0.24449876 1.2797552 -1.0702994 0.94203967 1.4848113 0.41782713 -0.50156057 0.5713827 1.5805426 -0.017536245 0.62294096 0.19559205 0.9554835 -1.0191499 0.7640361 1.3520027 -1.5700446 -1.7091855 -0.728039 -1.3433106 -1.0642414 -0.22016172 0.9054064 1.6966805 0.9148725 -0.57432234 -1.6406512 -3.335251 -0.36969286 0.33859906 -1.4202644 -1.664662 -0.9927983 -0.42663345 0.33003515 -0.36823162 0.51492375 0.28067487 -0.29307553 -1.1861837 -0.78595024 0.6446986 0.929943 1.5896887 -0.16277665 -0.5978429 -0.3039122 -0.055185653 -0.20752536 -0.74970794 1.8063232 -0.1626918 0.46695182 1.3908092 -1.9386082 -0.8101727 0.97634953 -1.8205283 -0.72675896 1.7822579 -1.6247748 1.0094411 -1.1878607 -0.71766037 0.51915264 0.17787008 0.3796398 -0.4474358 0.41528705 -0.42523515 -1.2419918 -0.5448126 -0.325991 -0.17580423 0.27281556 -1.6732947 1.8554069 0.048445128 1.63671 0.32429034
e8 -0.16585878 -2.1397874 0.6098624 0.49886763 -1.7488929 1.5852292 -0.012437148 1.2869447 -0.32122386 -0.6670312 0.60833186 0.71734875 -0.52649605 0.86187285 -0.45670152 0.333362 0.23364414 1.3064115 -1.0282947 -0.87547576 0.45599484 1.0542312 0.14960939 -0.8529743 -0.7299908 0.3560199 -0.5970538 0.88530284 -0.096226186 0.3762784 0.012846805 1.1046588 -0.81425714 0.2576037 -0.17758162 -0.62438554 0.18402918 1.7472684 -0.08861892 -1.1751599 -1.0220963 -0.3199772 -0.28182486 0.88385624 -1.3364279 -0.45766613 0.8354531 -0.9065984 0.48826715 0.30314967 -1.7866523 0.53263336 1.1170416 -0.98087984 -0.4788463 -0.15413621 0.4283535 1.3009902 1.5499128 0.34926063 -1.1504151 -0.1789564 -0.6438882 -0.30253664 -1.1120094 0.59083635 -0.6259051 0.32627463 0.4198747 -0.32849646 1.0746542 0.7880069 1.0017058 -1.131886 -0.6405915 -0.1948404 -1.6238182 -1.7423762 0.5835933 -1.267932 -1.4514357 0.7151513 -0.9278189 -0.53253454 1.0747184 0.6263031 0.54599094 -0.60763925 -0.37785754 0.2722585 1.2909076 0.5042416 -1.9295152 -0.039394733 -0.51835066 -0.73454154 0.03330356 0.111760125 0.64270824 -0.26527703
ec -0.307495 1.0673866 -0.19321214 0.9632369 -0.8110877 -0.6274567 0.90302074 -0.7680262 1.119493 -0.033086233 -0.91077274 -0.3029081 1.3800433 0.036580324 -1.6035781 -1.0325732 0.74974966 0.93910885 -1.1381091 -1.8646555 -1.3685412 -0.3164031 -0.31888726 0.75580066 1.334738 -0.47816515 0.37400025 1.0831857 -0.11224379 -1.0111156 1.0105586 2.1845808 1.198083 -1.6053501 0.15876345 -0.2831978 -1.1195014 -1.0818368 1.5224304 -0.4194904 0.10721694 -0.16025834 1.0425129 0.067509644 0.17394376 -1.2546949 0.9026325 0.24692246 0.098780096 -1.259122 0.2109284 -1.2529117 0.34377816 -0.34898344 -0.50430524 0.07548512 1.6789652 0.694793 0.920722 -2.6567936 -1.1274897 -0.8240854 0.11348187 0.45562637 -0.09744846 -0.918785 0.4776344 1.7139664 0.068023 0.15929355 0.7392316 -0.2879353 -0.5737043 -0.9115789 0.7712386 -0.5601785 0.554054 0.094469264 -0.059297014 0.8347597 -1.2164246 1.5668972 1.3495127 -1.0387639 0.65750426 0.08808015 0.25891873 0.17412826 -1.1199547 1.273499 -1.932453 -1.823818 -0.99528414 -0.04557705 0.6550002 -0.3265694 -2.0379384 0.5234726 -0.081151195 1.5392946
e5 -0.4699791 -0.66864777 0.9830251 -1.381394 -0.12181527 -1.6502278 -2.4284036 0.8531007 0.36686283 2.143937 -2.4370604 -0.25106013 3.1870131 0.00094671064 -2.2829847 0.7477383 1.3084927 0.044188123 -0.22538272 -0.25752217 -2.274586 0.4440887 0.34433752 1.1367339 2.1110876 0.61253136 -0.39840874 -0.08139207 -1.0055134 1.5048826 0.23122115 2.023999 1.0527824 -0.15636681 0.24436359 -0.5376735 0.49191093 -0.3461473 -1.8507264 1.6736373 -1.650549 -0.14112175 0.10135218 1.9249754 0.7808226 -3.1345918 0.72076905 0.69073015 -2.1030025 -1.5225129 0.22604303 -2.8007145 0.23626393 -1.8208497 -1.208676 2.3211892 -0.4855587 -0.15823653 -1.0023249 -0.20844384 -0.99066305 0.085315995 1.0929686 0.8652052 0.9244144 -2.0564387 -1.2183831 0.9556731 -1.2818185 -2.0413141 0.98932123 -0.44197962 0.38962755 1.7856041 1.1381199 0.43706596 1.3678484 -0.41744912 -0.26254234 -0.13916205 0.041210566 1.1088798 1.4641328 -0.3121625 0.86481696 -0.61086446 -0.41941056 3.4036014 1.4645287 2.3407586 -2.3391 -2.046783 0.9641923 0.39243758 -1.7168783 -1.7335944 -1.1294566 1.0039696 -1.2386479 2.4951024
88 0.5327447 1.992455 2.537439 0.34289378 -1.336462 0.16685599 0.48505872 -0.33553037 -0.8171569 1.3803937 2.1767986 -3.748633 6.794049 0.6490506 -2.5970662 -0.4485384 0.16490108 -0.12625651 0.113866515 0.78284895 -1.8247263 0.92883664 2.9664989 -0.1749102 2.7835178 -2.5830684 -1.2194259 -0.6296705 0.025781538 -1.7840632 1.9593756 -0.20779024 0.7413993 -0.81290555 0.27977854 1.9481137 -0.4973928 -0.62491596 -0.27403533 -0.03781219 0.2695194 -0.03742653 1.9240791 1.5623002 0.6586245 -3.6002052 0.6496048 -1.6956707 -0.39885387 -0.030049339 -0.56558126 -1.5443012 -0.41136548 3.4906905 0.44036186 0.5612025 1.8767267 -0.5603446 1.0745822 -2.6046567 -2.0227606 -0.85914993 -0.86788553 -1.5578209 -0.22946754 1.1945688 -0.63683593 0.7041757 -1.5874842 -2.1638796 0.012118325 -1.3044049 -1.4128369 2.3551426 0.8874412 -1.3932867 1.0858927 -0.21910799 -0.28271782 1.5062051 -0.43017775 -0.37214893 1.4017375 0.57579434 -1.6528767 -0.6778801 2.4240866 1.742169 0.3864941 0.14901409 -1.2815113 2.0750117 1.9153538 0.6044223 3.743942 -2.1130905 -0.7384044 -1.2451866 -0.77801156 -1.0198195
08 -1.0085841 0.27317184 -0.46809974 0.34364846 0.8424309 0.23280284 -0.81540567 1.0361854 0.50953263 0.8049586 0.37283596 -0.4836471 0.96892583 -0.9123398 -1.3518955 1.307799 -0.5743261 -0.051996276 -1.1890863 -1.8432902 -2.1646833 -0.7014114 -1.5864588 -0.797008 2.1102166 -0.2660555 -0.0012302608 1.5054686 1.3279271 -0.609633 0.67812985 -1.6621398 -0.30631456 1.3896854 -0.36722088 -0.9261095 -1.4076879 0.5278376 0.8326563 1.6972907 1.2198229 -0.5911845 -0.43917727 -0.712542 -1.2724413 0.06887728 0.0803802 1.2925197 0.08699623 -1.0374354 -0.4291245 -0.9489718 1.018091 -0.355435 0.89463514 -0.6373207 -1.2411666 2.192102 -0.35257578 -1.6035388 -1.5322355 0.46052322 -0.99713093 1.6716158 -0.17666188 0.11320252 0.6358691 -0.81184715 0.2901343 -1.2391627 0.9246436 0.051002312 -1.2333132 -0.33505183 -0.52759844 0.1259868 0.25795758 -1.957007 -1.0580951 -0.47990906 -1.7786744 0.17609139 0.8543298 -1.9244823 1.0792758 -1.3844025 -0.43341628 -1.2748933 -0.19935313 1.7238268 -1.4593692 -1.1569566 0.72248846 -1.4859393 1.2886083 -0.43046263 -0.25685352 0.23388821 1.5048962 0.41125292
c3 -2.2717552 0.068967685 0.6756184 0.34976032 -0.052014615 0.38970765 -0.25781104 -1.0137566 1.2737653 -1.4177614 0.07349942 0.39988613 2.7674465 -0.0858423 -3.2461605 -0.63364154 1.6593843 0.19193274 -1.0803452 0.79649043 -2.485841 1.8959098 1.3060913 1.541188 1.8762476 0.49303058 -0.14178324 0.14614934 -0.6234883 0.847522 0.2659387 -1.1635636 1.4728607 -0.4850282 1.1897937 -0.75201327 -0.40401393 -0.950339 -2.4488816 0.016000822 0.6133004 2.876932 1.4002169 1.7726974 1.6027793 -0.4229663 -0.17319834 0.45607594 -1.4858547 -1.7488375 0.52472275 -2.1773999 -1.330152 1.2335906 -0.44609755 1.4539169 0.60740167 0.49037033 -2.2359731 -0.5729482 -1.2726989 -1.5242664 1.1324654 0.29982343 -0.24256082 3.4624665 -0.97560596 0.69007945 -1.2861826 0.7046391 -0.12756342 0.085053846 0.49790084 2.0071287 0.59412295 0.16051131 1.0067998 -1.1460975 0.42189834 -1.1600119 1.1826334 1.9120916 -0.08856629 -0.15968853 0.73972404 -0.105699375 0.43062413 -0.15079789 0.2940462 0.38652498 -1.4562356 -1.6078937 -0.076914236 -1.0888529 -2.3594244 -2.6509225 -1.5215435 0.8554286 -2.2325258 2.644137
ff -0.3202192 1.1373262 -0.3004588 1.0878925 -0.06573366 2.4148757 -0.34606892 -0.13541734 0.2725751 -0.28971976 1.1232302 -0.046731796 -2.4574645 -0.30667192 1.0582113 -0.13942139 -2.1133003 -1.2875935 0.31903815 0.56643516 2.8159263 -1.9778134 -0.058918778 0.27228728 -2.0344715 0.55269754 -1.172989 0.81750524 0.5013748 -2.1124241 -1.6259626 1.5793004 -3.1436331 0.026114075 0.43268043 0.23169069 -0.26522774 0.7108406 0.26510355 -1.4767938 -1.5756305 0.27096185 -0.65568167 1.9326794 1.0808806 0.8535363 0.07197779 1.6107491 -1.0517932 0.662628 -1.6607985 2.038194 -0.964392 -0.19820641 -2.7938116 1.0272205 0.53600395 0.46315587 0.30139476 1.2021466 0.17862916 -0.2809078 0.9911892 -0.5036953 -0.14522454 0.92119074 -1.265686 0.5272125 -0.4327492 2.218465 -1.1553477 1.0702847 2.1845262 -2.0965574 1.7917238 -0.42872378 0.09330293 0.9864032 2.1343231 -0.5604163 -1.1160898 0.37233233 0.71496034 -1.4919449 -1.8132623 -1.3920809 -0.030924646 -2.170161 0.034624264 1.1830647 2.0782404 2.3237908 -0.63590777 -0.73611695 -0.6455548 0.5590252 0.6893294 0.31148732 -0.5104819 -1.2270366
f4 -0.367093 0.98702425 0.4464097 1.4527262 -0.90903825 1.0055692 0.4060877 0.1995224 0.10318064 0.21042788 -0.7341605 -1.0832838 -0.25751013 0.562792 -0.4435739 1.2553737 -0.24183626 1.4806045 -1.5831418 -1.7323451 0.98483986 -1.2229007 -0.74440354 -0.30205384 0.39513803 -1.6259255 -0.13817985 1.2605286 -1.7139235 -1.417877 0.90143156 -0.9469969 -1.2438476 -0.85916954 -1.3635503 -0.8012324 -1.4763993 0.5227913 2.9030037 0.61203253 -0.60758483 -1.2146629 0.7721195 -0.9696267 0.4465221 0.25278428 -1.1572095 -1.4234577 0.6058541 0.053945955 0.2712521 -1.0792611 0.40003505 0.06598232 0.71146953 0.42610875 -0.7069334 -0.8131303 -0.16198765 -0.4604386 0.10956396 1.2779189 1.9637825 0.4527655 -1.4842864 -1.0210172 0.3869287 1.5059191 0.17525981 0.46627882 0.38618273 0.9152009 -0.83803964 -0.65128005 -0.42237535 -0.313379 -0.4137674 0.35193023 0.47591132 0.64215666 -2.9911833 -0.40987808 -0.9423307 -0.5731209 0.013057381 0.19078583 -0.5181453 0.37075678 -1.1528507 -0.89236134 -0.6594589 0.6521474 -1.1949688 0.71047544 0.20048785 0.065759905 -1.2377 -0.12120888 0.4849918 -1.8639164
5d -1.2352281 1.1718398 1.5034277 1.0306141 -2.5288029 -0.6882871 -0.85204107 -0.870278 0.4773807 2.0180137 -0.4525848 -1.4525099 3.1605835 2.8569076 -1.9285241 1.6132559 -0.00568814 0.86180365 0.40273267 -0.76363 -1.7310535 1.1992774 2.045253 0.680166 4.0887947 -1.6529449 0.19817425 -0.5483462 -0.15523599 -0.3887387 -0.09825252 2.3734837 3.8482215 -2.6778738 -0.43932945 1.4136956 -1.4066716 -0.7331152 -0.13379489 -0.43142372 1.2212312 0.8715258 0.7745055 -0.11905918 2.179305 -2.7616541 1.7246981 -1.1259955 -1.3087927 0.5390162 0.36360377 -1.4367805 0.0045323945 -0.25747728 0.94775504 1.707517 0.13479094 0.9037518 -0.009154207 -1.6913214 -2.5795486 -0.65828305 0.77771133 -1.879316 1.4357989 0.11620784 0.9786414 1.0069917 -0.44380102 -1.8874366 -0.79378456 -0.29329574 -2.4149275 1.4030064 0.5968676 -1.4967728 2.2197595 -0.3371124 -0.57100683 2.8443797 0.10692435 -0.24665399 0.8959726 2.6579406 -1.1884217 0.47301078 1.5453652 0.4705076 1.2450151 -0.6038172 -2.1542852 -3.6297953 -0.18171158 0.6713076 -0.026962979 -0.97805727 2.3187525 -1.0661645 -1.8126953 0.25701058
c9 -0.35507023 0.35001132 -0.33378664 0.5651969 1.7384892 -0.058046624 -1.217876 -0.3728241 1.4109927 0.29898235 -2.1624553 -0.4617984 1.6203878 0.65821207 0.41544297 -0.45993018 -2.0778227 1.9081469 2.0870273 -0.612804 -4.6624823 1.8282108 -1.1972365 0.17019044 -0.6796002 1.474424 -0.29778117 -1.6113796 -0.52858037 0.075099036 0.029240016 -1.3528107 3.0120385 -0.7892307 -0.012897337 0.25302255 2.562154 0.3756249 -4.4206276 0.8179412 0.8805187 -1.1754137 -0.6083593 -1.2760558 0.16601312 -0.49617666 -0.8244807 -1.6415794 0.7559208 -0.5173771 1.8816843 -0.8062926 -2.0393643 -1.4446337 -1.6437763 1.7961298 -0.1597595 0.8640394 -3.6730313 -2.1387007 -2.5671813 -1.8084911 0.8818971 1.1398246 0.9309379 0.13339722 -1.0860722 -0.7240544 2.8045812 -1.1398748 3.1823752 -1.090192 -0.88283086 -0.993371 -0.58533806 1.6358325 0.32178128 -0.5234783 2.3562098 2.0498512 0.8726601 0.26804918 1.0450699 2.3684466 3.0126078 -0.19483049 2.503698 -1.4897666 -1.9284736 2.088291 -2.7043514 -1.6145535 0.07165213 -0.70160496 1.6300234 -1.0437554 -1.1622279 0.84918946 1.1250874 1.2242122
f0 0.88959223 0.009468112 2.4150696 1.503946 0.099323384 0.5118767 0.31415984 0.28821287 0.51939845 0.56407875 0.5493986 -1.4113672 2.071575 1.0040193 0.15728918 0.9384817 -0.43052217 -0.8006814 -0.95923394 -2.3226905 0.24716578 0.48205316 -0.34197304 0.37313426 1.9026855 -1.5296786 -0.7668934 -1.3060145 -1.4767281 -1.3526161 2.4649434 -2.0684664 -0.5562295 -0.8701822 1.0665853 0.6979978 -0.54470503 0.10901219 1.5738529 -0.7449391 0.35168558 0.77393764 2.0447962 -1.8404051 1.6412729 -0.38081232 -0.24823044 -3.0943053 -0.29527092 -0.56210524 -0.1480426 -0.89060456 -0.9345855 1.6641854 -0.10843212 0.07484758 -0.35669526 0.47702342 1.5321754 0.63298494 0.18270996 0.5759052 1.0605925 -0.50630313 0.25283352 -1.2090013 1.3324507 1.1636813 -1.3955775 -1.103445 -0.56677556 2.5280962 0.032857466 -0.0017784842 -0.7693302 0.27128527 -2.443951 -0.58108735 -0.14693376 -0.34214118 -0.7366045 1.4740697 -1.9321333 2.5430875 -0.8843912 -0.8333721 -1.9834952 0.49761942 -0.5141952 0.22767368 0.09143981 1.9796803 -0.5134238 1.5519044 -0.7658869 -0.4700629 -2.231735 0.585569 -0.21218917 -2.2185683
4d -0.36907348 1.4066354 -0.0410694 0.11706939 -1.3499317 -0.105640434 1.099711 1.0310739 1.372347 0.88244116 0.7646888 0.15121394 3.4251506 2.5473385 -3.5020995 -0.041386757 -0.14006333 0.60061586 -1.805956 0.24170971 -1.7142366 -1.1549672 0.9308083 0.2524805 3.2733085 -0.6324279 1.5406159 0.22511977 -0.028979244 -0.8124764 0.783821 -0.51210195 1.5186428 -2.28603 -0.32665843 1.7293618 -0.85704607 0.6866371 -0.7818768 1.7710254 -1.2834772 -1.1804647 1.2830346 -0.18549857 0.9460015 -1.6110921 1.2767525 -0.91450405 0.41301596 -1.140756 -0.093363926 -3.9093406 -0.19978544 -0.36822504 0.39891607 1.7104362 1.5388508 0.79575497 0.5960213 -2.931968 -0.44640273 -0.7751748 -0.4830866 0.05754003 -0.31505686 0.27466926 -1.032979 0.63459027 0.74029374 -2.058474 -0.075628236 -2.1859708 -2.2463915 0.5572182 -1.583095 0.5975973 -0.24389537 -0.84003294 -0.8050905 2.209594 0.7844659 1.0072693 0.7111975 -0.92231274 -0.25625348 -0.47287694 1.3546126 1.8278824 1.7788373 -0.42613158 -2.1842008 -0.4889574 0.076548815 -0.25422016 -0.042968377 -1.7503908 -1.2178452 -0.46947923 -0.07847784 -0.8048202
c7 0.5122576 -1.0672545 -0.20657179 1.3433092 0.020736096 0.075185485 -1.0531126 -0.44331077 -1.5412055 -0.08259939 0.5977864 1.2389395 -0.16208288 -2.643751 2.9449625 -0.7909857 -0.7013534 2.0104978 -0.8153392 2.8873324 0.58523446 -0.5311338 0.049440935 -1.3108325 -1.372867 -1.265892 0.53038085 1.3577743 0.48692295 -0.79454136 0.09466024 -1.5061789 -1.9652979 1.5044792 0.45008105 1.3957578 -1.4804556 0.20864931 2.0653865 1.6808653 0.78471893 -2.3374007 0.3455737 -0.44756725 -0.97519004 -0.2320785 -1.4912207 0.015318487 1.7403387 0.08696736 -0.084499836 0.24140298 2.2347257 0.52243465 -0.5109443 -1.1421545 0.035822976 -1.6054995 -1.6661845 0.9380549 1.862369 -0.19602132 1.0140809 1.7994694 -0.05235322 0.5164829 -1.6082886 0.6677759 -0.21035369 0.60119176 2.0520563 -0.12751336 -0.7756254 -2.9501152 1.343548 0.15199056 -0.42943287 -0.46990103 1.3718321 -0.15905598 -1.6841612 -1.271903 0.24613735 0.23911658 -0.43558457 1.171536 -1.1425368 -0.8562715 -0.037822846 -0.8305884 2.1586962 -0.18761405 0.30574012 0.35273305 -1.6358066 -1.7418681 0.9029969 -0.56749326 -1.0963184 -1.7756044
90 0.3858334 -1.2624736 1.4671149 0.28905323 -0.8312425 -0.010572304 -1.0810932 0.2264176 0.8991034 -0.08087901 -0.71619695 0.86896384 1.0501771 -1.6318504 -0.46708348 -0.7400328 0.5570434 -0.6671556 0.16561222 -2.8252218 -3.554748 0.63776034 -0.3263046 0.2309622 -1.5749699 -0.08314141 0.8631704 0.5679351 -0.09417267 3.1064124 -0.7841735 0.69837505 1.9308937 -1.4592195 -0.31115654 -2.0685997 -2.2158082 -1.2847316 -1.5742894 0.44383696 0.5962018 0.26108798 -0.43277293 -0.026646316 0.6468259 -0.77410364 -1.2428931 1.9301369 -2.2808821 -2.0493205 0.1993718 -2.1076066 -1.0829523 -2.1933587 -1.5771798 0.5264013 1.5838176 0.44409916 -2.2725997 -1.9522774 -1.6295537 0.7761034 -0.10558191 0.71966004 1.1355046 -0.4323425 -0.50717556 0.39310786 1.6372162 0.14050856 3.247209 -0.7127987 1.0143806 1.1625469 1.5401404 -0.0978958 1.8123739 -1.5163727 -1.2125237 -0.7174948 -0.21075991 1.2080294 0.9637775 0.41848782 0.25917992 -0.9661192 0.35150528 0.3259426 0.02234902 2.1114464 0.022281691 -0.5299151 3.4899025 0.37668118 -1.0177723 -3.318194 0.4868783 -0.6558126 2.4847057 1.1815089
0c -1.7232221 -0.6054085 -0.28998375 0.8488648 0.614224 -0.59806114 0.16519383 -0.7326101 0.2984513 0.24316064 -1.0125237 -1.6767201 1.5590491 -0.8253755 -2.440799 -0.20934989 0.3887717 0.51995665 -0.911228 -2.2573051 -3.7428951 0.6507999 -0.007645059 -0.7497508 2.0358398 -2.8058183 -1.0505265 1.6433604 -0.98152214 -0.4659231 2.824304 -0.56464857 0.75985897 0.16335566 1.2210958 -0.15278403 -1.4154476 0.46312362 0.9244012 0.21552467 -1.197635 -0.39996576 0.86813295 0.6511031 -2.1378272 -0.83209556 0.2773653 0.21992755 -0.3779817 -1.3074538 0.44204023 -0.9811296 1.8499538 0.27362698 2.3701074 0.5496017 0.09625448 1.6504118 0.8814638 -4.346947 -1.9642138 -0.5639384 -0.81299883 0.21063665 -1.0231601 -0.21818994 -0.045337774 -1.1027616 -0.52748764 -2.9309778 -1.5936832 -0.34042734 -0.81239593 1.4180866 -1.4811465 -0.13974978 1.8819126 -2.368801 0.9982981 1.8536699 -1.8806647 -0.69285566 1.8310822 -0.9775005 0.1808026 -1.399724 -0.6326163 -1.5738844 1.7004956 1.7964646 -3.019639 0.0012900068 -1.6492459 -0.6424525 0.7906715 -0.297306 -0.03014129 -2.0504072 1.4818952 -1.6347662
8d -1.0973058 -0.5353901 0.14614484 -0.16605787 -2.1469045 -0.57015276 -1.7550726 1.336895 -0.023301644 -1.3542311 0.21309936 0.991408 -0.40237582 -0.65824133 0.6081332 -2.6183083 1.1964718 1.1198572 0.772843 -0.8760232 2.2894602 -1.0310035 -1.1536603 -2.2708418 -1.6277688 1.7139535 -0.47643822 -1.4121376 1.1607093 -1.900258 -1.8478333 -1.2563944 -2.254175 -0.9993691 1.9404411 1.3633657 0.7202209 -0.4225576 -1.1871254 0.1610229 1.0837109 -1.2064236 -1.164111 -1.2792645 -1.6483243 0.95198286 0.11194395 -0.36685222 -0.21551734 -0.06887536 -3.1374452 -0.27292815 3.555923 0.42778775 0.82676756 -0.73486924 0.017539766 -1.4954396 2.2894537 0.27579358 -1.163257 4.8526707 0.12457053 1.5873984 0.76307636 -0.5847257 0.6632861 -1.7814789 0.15496647 0.8298274 -1.3061773 0.02320854 2.3110363 -2.9597857 0.6039969 1.2679776 -0.76273394 -0.29236242 1.8151883 1.3378423 -1.1496054 -0.6181991 -1.357375 0.4857407 -0.67052364 -1.594897 0.7589328 -2.474747 1.5774502 -2.4312708 2.1641247 -0.70739675 -3.519513 0.25365338 -1.2063911 0.26084667 -1.7286235 0.041368887 -0.19459614 -0.43718088
10 0.671678 -0.46395302 1.4314038 -1.6447212 0.41276234 -1.6682802 1.8395753 0.5961165 0.83153677 0.5643154 0.24769102 -1.7090676 3.736069 0.5138866 -1.216456 0.49687335 -0.95596516 0.4013279 -0.2985318 -1.5535597 -2.4391792 -0.5202839 0.33429283 0.94289654 3.6252234 -1.8533823 0.15626849 1.6303568 -0.78013957 -1.147462 1.626168 -0.26674744 -0.03753729 0.9479036 -0.5872703 -0.272056 -1.6971027 -0.61464137 -0.38170722 -0.06777991 -1.6482849 -0.86583006 2.5520136 1.0202744 0.28128704 -1.2615358 -0.40077457 -2.7603192 -1.5503863 0.41456866 -0.14334722 -2.141689 1.5940043 1.5003637 1.2828201 -0.36781612 2.136599 0.5609445 -0.9815897 -2.499321 -1.9260402 -0.17357047 -1.2391584 0.40360358 -0.27529502 -0.7321925 -0.88963693 -0.9041986 0.380355 -2.8991828 -2.0072393 -2.2904906 -0.5884138 -0.32198036 1.3564997 -0.7985536 1.9015014 0.92194694 0.6555913 0.9298467 0.3805231 0.5447659 0.64649653 -2.5932837 3.0873973 0.44653496 0.012476639 0.13211666 0.75667393 0.116426945 -3.8203874 -0.82921714 -1.8349115 1.0335795 1.1085513 -1.1849997 0.22851788 -0.15185854 1.0351619 0.83295965
fc -1.8386304 -2.2299366 -1.5230395 1.179158 1.8247024 -2.5384867 -3.689036 -0.6284595 2.3539505 1.2378896 -1.5114487 0.014362666 1.3938929 0.33365774 -2.2676806 0.28048167 -0.48108357 1.1837094 -1.2552382 -2.5505364 -4.3657146 -0.5289575 -1.713717 -1.684267 2.442824 -0.1514317 0.06381674 1.307968 -0.43734792 0.39151058 0.32710654 0.77399933 1.3600984 0.42050615 -0.56365293 -4.220281 3.5447586 0.32013008 -2.1738722 0.99671924 -0.567741 0.4376756 -0.2614384 0.3486674 1.0545262 -0.931059 -1.8580896 0.8840142 -1.0740418 -1.8567225 0.22739612 -2.5878627 -0.19498418 -0.7990213 0.6526479 -0.6546982 -1.0461029 2.2088845 -1.1447212 -2.974405 -2.517707 0.03982145 0.71583366 2.8905034 -0.3945723 0.2910596 1.1236463 0.6254918 0.2550375 -0.9887398 -0.26050648 1.4444292 -1.4738952 1.9330257 -0.61861455 0.33407652 2.6242685 -2.239333 -0.33550194 -0.5814496 -1.9177277 -1.02631 0.68648106 -1.7543029 3.8952858 -0.022493545 0.0118191345 -1.0604118 0.83923626 1.8622214 -2.9802341 -3.1638062 0.5695969 -1.341909 2.0811727 -0.15103368 -1.4925399 0.241071 1.7078832 0.44078913
44 -0.116926745 -3.1047287 -1.2072886 -0.12392526 1.9302726 0.9039735 0.16207024 0.6897858 -0.080235094 0.7970068 1.3444506 0.785097 -0.9078683 -1.5354527 0.62108433 0.4640957 1.7949315 1.380435 1.4170763 3.2575111 1.2468828 -1.1506157 -1.0889773 -1.5392861 -2.5695188 -0.6986774 -1.5561665 0.51177925 1.1909869 -1.0348233 1.3047148 -1.0285013 0.6416558 -1.5422775 -1.8899794 -0.2629627 0.5037464 -1.0864626 0.58533686 -0.055471934 -1.0737615 -0.94079137 0.07782614 -2.8902667 0.53463876 1.5237542 -2.1375802 2.664653 2.2321641 0.7063618 -2.2965796 2.7028089 1.1315753 -0.1362568 1.3819233 -1.6588364 0.49198663 0.8856806 2.0836902 2.2539728 1.0603094 -0.59800327 -2.5033422 0.3898056 0.76081413 0.7344096 -1.8073466 2.0528753 -0.90200675 0.89340025 0.5396894 1.0702083 0.6627605 -3.4233449 2.1169105 -0.99126804 -2.4282641 -1.0599844 0.07543115 1.0713096 -1.9503052 -1.2583563 1.4192411 -2.8647003 1.1010729 0.1192915 0.21568955 1.1644751 0.5391633 -0.8756802 -0.2853398 -0.29068536 -2.275807 0.10522448 0.614177 1.3866733 1.4221709 -1.0665305 -2.5926359 -2.4540339
14 -2.335634 2.981206 1.6220455 -1.1851443 0.07165497 0.21525382 0.73601705 3.6083848 2.6540444 -0.5350146 2.3953102 -0.81473655 0.21717817 1.5157316 -2.10088 0.0057551027 2.0639124 -0.04735635 -2.0688884 1.5425577 -3.0626984 -0.12665597 1.7404609 -1.9248102 1.5390427 -2.4883556 -0.13003387 1.9104539 -1.0838616 -1.5185729 3.197203 0.3037869 2.5856779 1.0088536 0.47797057 0.5766295 -1.1540389 -0.5458088 0.83380455 1.8851621 -1.0210024 -3.0099862 0.46197248 -1.47105 -1.8557744 -2.7504644 -0.4122058 -1.6422585 -1.8175912 -0.24025634 2.9413328 -1.7773857 -0.24268903 0.8309275 -2.0081334 -1.545118 0.9102747 -0.5368277 0.327828 -1.2957475 -1.4256669 -0.81179714 0.16165678 -1.5255845 1.0712805 -0.56145066 -0.8073142 2.2277637 0.8968281 -1.2502586 0.60488176 -0.31590337 -0.49802297 0.23744062 0.17956756 0.774533 -1.3379059 0.60953736 0.7884785 0.02654426 -0.24425022 -1.7257755 -0.9430446 1.6527475 1.9060227 -0.18439522 -0.19841656 1.24481 0.7405245 0.44083062 0.33064526 1.3060422 -1.7322025 2.1524827 -0.6985931 -0.21615833 -0.9461751 -4.0576897 -1.4357955 -0.06013803
e4 -2.7437818 -1.8279792 2.1484573 -0.7650615 0.71403587 1.3060795 1.2414383 -0.021704052 1.9241754 -1.0141485 -2.2375233 -0.49343944 -0.104072556 0.30759308 -0.20533556 -1.2525575 -0.1418915 -1.1044415 0.11705389 -1.2195493 -0.8113967 -0.007894911 1.3778301 -1.2124319 2.2095597 -1.9196153 -1.867529 0.76080483 -0.81448406 0.98618895 -0.13069846 0.3902435 -0.7806903 2.0703688 -1.2575053 -0.28991073 -2.9228983 1.0653106 -1.5245385 -2.5699842 -1.472025 0.9738639 0.9652976 -1.5223613 1.3386661 -1.2639656 0.92223597 -3.3583024 -0.35693756 0.49178922 0.5654756 0.6807844 0.8741949 2.7637138 -0.16993019 0.7903832 1.5698469 0.34706035 -1.2871125 0.475284 -1.4080945 1.3671974 0.20189577 -1.9476694 2.1148703 2.8449914 2.465406 1.5630571 1.0175623 -0.7313747 -2.3612785 2.0562267 1.60029 -1.1864215 -0.31749907 -1.081625 -0.3996142 0.4495301 -2.0239937 -0.4087516 0.81527823 1.9831163 -0.22677356 4.2187057 0.7129605 -1.7845037 -1.818487 -0.48121464 -0.41825193 0.9223907 -1.1393981 0.019250855 -0.53643554 1.3743367 -1.7430211 -0.45878923 -2.2337031 -0.10595342 2.9434206 0.58920354
c0 -0.023999 0.20295705 -1.1947558 -1.8961202 0.47696668 2.9263494 -1.3519248 -1.195799 0.5638776 -0.33667013 -0.6004092 1.6307732 -3.0790415 -0.0835029 -0.14501143 -1.8012135 -0.8193208 -1.4920558 0.8129022 0.55190307 -0.055211056 1.3426628 -0.63829815 1.6156019 -1.9413729 1.6213465 -1.3447549 2.1250744 -0.03400744 -1.3554808 -0.13539776 -0.9177706 -0.78329194 0.34960297 0.75692177 2.1650398 0.019894794 -1.8604007 -0.8209916 -3.1014762 1.0054073 0.6011884 -2.943063 -1.789286 -1.3798991 0.6652779 0.7238226 2.4648457 3.0752938 1.2309378 -2.5829208 2.3423183 -0.5238764 -2.150176 -1.5199878 -0.6038055 -2.2746255 -0.36382443 -0.3766974 -0.47857052 -1.7202871 1.3210928 1.4117045 -0.9058419 -2.2384274 -1.660494 -1.9721277 -0.5333079 -1.2168189 -0.14751796 -0.32442653 1.8299282 -1.1069859 1.8264585 1.5555917 -0.37708732 0.021504637 0.83334565 1.4163394 -0.18754567 -1.842132 -0.085764766 -0.28958 -1.1223139 0.82102555 -1.5854379 0.32243302 0.66178167 0.9340977 1.735675 0.6927507 0.9204478 2.5347853 -1.404923 0.74714994 1.6023291 -0.67519456 1.3860855 0.59423965 -2.916913
f8 0.22354844 -0.37310958 1.9414853 -2.735425 -2.043195 0.91207606 2.0741053 0.9128607 0.26421368 0.6049811 3.581983 -1.5636224 4.8317657 -0.2570003 -4.3399096 3.230924 2.855708 -0.80128604 0.43137482 1.0540323 0.041029975 4.1996727 3.5840461 -1.631399 3.6578693 1.1401842 -0.09297227 -0.65562487 -2.5473099 -1.6622481 0.506096 -1.5648577 3.035132 0.8962383 -1.0328648 -0.77235883 0.027769241 0.05197501 -1.2819725 -1.1595062 0.57225996 2.3341558 1.3830978 -0.33061776 3.1923692 -0.6575859 0.9445498 -0.7053788 -0.06454739 0.6602816 3.2608678 3.0339415 -1.0658367 3.0865407 -0.462657 0.61951965 -0.73808974 0.1337048 0.22759187 -0.7562547 0.041933235 0.35107517 -0.7408231 -1.762667 -0.41429865 -1.5563082 -1.1078379 2.665024 -0.92246085 -2.474275 -0.3907224 -1.6332036 -3.064022 3.1685014 2.486907 -0.3431004 1.8350896 -0.5010743 2.2883537 1.5455482 -3.0315187 1.8058833 0.68345577 -0.3756055 -0.09216724 1.6546472 2.8443382 1.7646109 -1.2758802 -0.039327886 -1.9040737 -2.194379 2.068819 0.6134376 1.7240456 -1.9039731 0.7306307 -1.3520744 -1.158464 1.9501921
02 -3.5499713 2.3238032 -1.7330421 -2.6866145 -1.0010495 1.3156562 1.4178414 -0.9214706 -0.43802485 -2.3549032 -0.17637722 4.0749817 -3.8093626 0.31326973 -0.652353 0.32669532 1.8459221 0.24535824 0.105605714 -1.8896289 0.6988131 2.6071997 -2.9359457 -0.5016777 0.32014883 -0.022435423 2.3642323 1.344266 -0.74846196 2.0116823 -0.49598682 0.18182613 -0.84790915 -0.28648832 3.0865304 -0.39982373 -1.9578242 -3.181552 -2.2427838 0.5964185 2.0024092 -2.3889637 0.8164968 -0.9996841 -4.499264 -2.166173 -0.34469572 1.6224382 -1.5569886 0.5996674 -1.4803448 1.1936152 0.5264171 -0.38400665 0.24483614 1.4727376 -0.9088528 -1.5540301 -3.2337978 -1.3259916 -2.5654907 -1.293654 -3.029262 -0.60898674 3.2124772 -5.5990734 0.33510154 2.5250564 -2.027961 -2.4002259 2.3688948 1.3787863 -4.8654504 0.04698415 -2.0503855 0.99553126 -0.046898577 0.74063677 -1.5333121 -1.0522757 -3.5073047 -0.043377418 3.0959442 4.209579 -2.2063231 2.6041815 1.6205233 -0.88677543 0.9458295 3.0363226 -0.9484894 2.1877546 0.22111963 -0.2334696 0.91954786 1.3028973 1.621217 -0.39140362 2.1933994 1.186286
c1 2.8765202 -0.0082056755 1.2294627 -0.32449242 -0.2590736 -1.3121833 1.0044945 -1.1517146 -0.16792817 1.1577853 3.0088332 2.259471 1.0911657 -4.0649095 -0.9424582 0.12146371 0.29936773 0.42712316 -2.6638103 -2.6260765 -1.740996 0.7457604 0.20548508 0.928793 0.85331565 -0.573087 3.1391456 -0.52086586 4.604708 2.8491411 -1.5963885 0.04229056 2.666577 0.3319354 -0.9282734 -2.275723 -1.5910976 0.28651246 -0.64914674 -2.262084 -1.5135312 -0.13335471 -2.7073972 -3.760932 -1.7296327 -1.0217514 -0.2410955 1.9721761 0.19302694 0.3174158 -0.5660017 0.7678016 2.5703652 -2.2629697 0.7826873 0.6358276 2.5653708 -1.0029283 1.9971389 -0.96652156 -0.5215041 0.7744511 -1.3371929 -1.337649 2.9756808 -0.47308782 1.6536154 -2.8800788 2.3699307 1.6279671 0.6208663 -1.4526299 -1.0852308 0.911964 0.15147898 -2.0725837 1.6851268 1.4085563 1.6066053 -2.0059636 2.0597126 1.5152833 -0.6551031 0.6161989 -1.8841774 0.93793267 2.1001687 0.6303771 0.6118105 -3.1491354 -2.6051445 -0.29848808 1.8808476 2.1074598 -1.5532916 -0.7962247 1.5526061 -0.25383875 1.2451941 -1.2779197
b8 1.5094749 -1.5503416 -1.3094426 -0.38759407 -2.0417004 -0.3407852 -1.63572 -1.5591168 0.17281868 1.7642304 -2.6900291 0.9018139 1.6195718 -0.66048354 4.1002884 -1.2312342 -0.19334053 0.5448217 -1.9669979 -1.0205892 -3.3062005 0.3345055 0.83656675 1.7176801 0.5337234 2.0363276 2.1402771 0.008966049 -1.345804 -1.1195327 -4.0523925 -0.56640095 -1.5808706 0.4723441 2.0302532 2.620178 0.15958132 2.6100454 -1.1796021 1.1795 0.059515763 -0.22575434 0.982882 2.3553944 0.26674664 0.37169108 1.0480382 0.66930455 2.4792275 -2.221461 -0.25200468 4.485108 -3.6078172 -1.1542729 1.631591 -0.30706304 3.8838112 -0.72824144 -1.3238792 -3.8106222 1.5063338 -0.8807888 1.6637411 -0.03134693 3.2291973 0.8751487 2.6168802 -0.45781004 3.926902 1.115316 1.5623773 0.17872773 2.7059774 0.13423401 -2.0649233 -2.3882115 -0.69135386 -0.018704636 -2.543143 -1.6596131 0.4597285 4.3868275 -2.7558699 2.757269 -0.30936816 0.844126 -0.73917973 2.7774637 -1.899692 4.687551 3.1024132 2.0020738 6.001012 0.23879673 -0.32696575 0.017792752 0.28884053 -3.2462432 -0.9889478 3.9889004
01 -0.5976351 -1.3965917 -1.5051749 -2.4983215 1.9685452 -1.2019674 -0.8127569 0.6015258 -1.8243916 -1.3841528 -1.3062506 0.23477033 -1.5218925 0.0006809387 2.7050047 -1.1681494 -0.36021736 1.2295046 0.51253563 -1.213073 3.188102 -1.8413666 -1.1304466 1.8033725 -0.113518275 0.04723466 0.8527926 -0.66497755 0.23973332 0.37331972 -2.9390514 -1.9465785 1.9192775 -2.019197 -1.2394483 -1.6949911 0.6056381 -1.2971275 3.1873896 -0.60386044 0.4777412 -0.10445799 -0.32878318 -0.30128205 -1.0541941 0.9098467 1.5231011 -0.082934126 0.788713 0.655793 1.5706606 -1.037257 1.0800939 1.7633699 -1.0855782 0.5372034 -0.22443931 -1.1888179 2.2441702 2.0898068 -1.3634709 0.053974234 -1.4407656 -0.5527995 0.63992316 -1.8283794 -1.6213872 -1.087411 0.45120215 0.29459286 -1.9985781 -0.25838304 -1.1054047 -0.81184494 -0.7609741 1.4468664 -1.157854 1.8071615 1.040356 -2.197325 -3.246148 0.81588566 1.5448949 -1.827894 -2.8659322 3.0588737 -0.18297182 -3.4735303 0.087252475 1.2380025 2.931651 1.8942395 -1.5628408 0.6380089 -0.57381475 0.4159854 0.6116982 0.80918336 1.1939011 -1.1995016
c4 -0.8338417 3.315672 0.08304929 0.12146256 -3.5113113 0.2660523 -1.026712 -0.23039255 -0.8336376 0.47175545 -2.2197516 -1.7863818 -0.31685612 1.8478684 0.27570993 -1.3199257 1.5364925 1.4263737 0.96071184 0.5826776 -1.5126916 0.8765562 3.5373347 -0.88344795 2.2866452 1.2568914 -2.1926947 -1.2223167 -2.0772367 -0.80572087 0.650757 -0.9662419 0.61134905 0.6778507 2.291994 1.2332177 0.8387069 2.3046267 -4.679483 -1.2848151 0.25377896 0.5290526 4.8242702 -1.00403 0.0831408 -2.5613754 2.339458 -3.5785983 -1.4101727 1.3703855 0.87491447 -1.5262676 0.20133294 2.4646316 0.5746869 -2.0114157 1.1309648 -2.588323 1.4764754 3.6029513 1.6511799 0.514974 4.905081 -2.0924354 -0.9479033 -1.2406471 3.678758 -0.48244762 1.4013876 -0.13737522 -2.5871527 1.3287169 -0.50261134 -1.8372388 -0.008125572 1.2691228 0.9970405 0.76999366 -0.8255128 0.9038088 0.081895225 -1.4486684 0.2340112 4.054105 -0.2514668 -2.202257 -4.493605 -0.39554316 -3.1809583 1.6996925 0.67836845 0.67067873 -3.5201652 -1.7480872 -1.3119388 -0.52823 -2.546791 -0.79918474 -0.6793139 0.65116984
85 1.1185622 -2.6116982 1.251474 0.13229904 -0.5031282 -0.23618093 1.5066764 -1.1315973 -0.8347556 0.92308366 -0.97478366 -1.3769624 -1.9658023 -3.9071858 0.76706177 1.1028254 1.6459156 1.8031323 0.019221999 0.2547986 5.7913723 2.892962 -3.3588994 -1.2710184 -0.29251367 -0.08697748 2.2931147 3.313046 -0.38776952 0.7876295 -1.8728642 -1.4928423 -4.011086 1.7372199 -0.14719826 -0.4003944 -2.1899154 -1.5103604 -0.6423548 0.9356261 -2.5383427 2.6693635 -0.8309046 -2.0920632 -0.18936805 1.5203383 -1.7152206 -0.19511734 0.07145403 0.7714346 3.8065176 -2.994528 2.4955978 -0.24808577 0.6675301 2.7492962 1.3523276 1.6718608 2.7583284 2.4423153 1.5588951 -1.0697136 1.0686525 3.6995544 -2.7341502 -3.309412 -3.8315947 -0.36706612 -2.0309474 0.33489046 2.0044298 3.431882 3.2741377 -0.8849349 -2.4565117 0.84459937 0.34193826 -0.5976644 -0.48361203 0.91770244 -2.4442127 -1.8110546 2.4360857 -0.36933163 -1.1575992 -0.9937361 -1.1172792 0.01015105 0.87877357 0.0969802 -1.441752 2.188488 0.9489595 -1.0521371 -0.50520045 3.5772226 1.8269583 2.597277 0.031321805 -1.0084794
c2 -0.8587938 -0.007586742 -1.154039 -0.20589118 -1.640107 2.7774732 -1.4574031 -2.89563 1.7616571 -2.294774 1.4019946 1.1363928 -1.589928 -2.2836204 -2.7884421 -1.5257128 4.373598 2.287913 -1.3769417 -0.6750336 -3.18526 2.9156647 3.2984877 -1.3649921 -1.3907714 0.5941075 3.361992 1.1598266 -1.3104621 -0.10367421 0.76240456 -2.9391944 -2.0467176 -2.3812878 -1.0435612 -2.882313 -1.3116093 -2.2502394 -0.2592669 1.0277199 -0.36082876 0.15268247 -1.4633356 -0.12587252 -0.79904854 0.95995367 -2.637861 2.0521595 -1.3168961 0.53649485 -1.629122 -0.88829106 -2.2017353 0.010992706 0.15505296 -1.097967 -0.13200678 -0.025281632 -2.0049536 -2.3488073 -2.0358834 -1.7630445 -0.7011762 1.6545495 -2.545614 0.06748889 -1.9083033 1.2326176 0.11698157 1.7953765 0.01746382 1.2119106 -2.5106351 2.9261544 -0.09985877 0.34971887 0.063439846 0.11794988 -0.3962382 -1.6116184 -2.783862 1.047753 -2.354144 -0.17900111 -0.8517634 1.4363852 -0.70305413 -1.0455643 0.85979867 1.2356285 -3.2093778 -1.6498461 0.31683478 -2.6378486 1.0650766 -1.8094219 -2.270125 0.45614007 1.7393957 -1.5831547
53 1.2960274 0.16711746 0.31397587 3.851472 -0.98482186 -6.2760425 -0.26538482 0.0832636 -1.9529026 2.7563162 1.4611429 1.5144308 2.4580731 2.2362452 -0.82734114 -0.697888 2.9730105 -0.9432679 -2.8910682 -3.700374 -0.6600108 2.3536193 0.0876502 -0.14578597 2.1537483 0.91093534 2.2407858 0.86716926 2.6544654 1.6653078 3.772845 1.8985242 3.5041242 -0.38651508 1.7757725 -0.6810273 1.90996 -3.147507 -0.37295425 0.25536782 3.5963812 2.4916584 0.68036854 -0.4072498 -0.99991494 -2.177989 0.51871395 0.86659634 -0.6607583 0.26096317 -2.8942003 -1.333634 -0.41434702 -0.24411912 2.2759004 -2.7954772 -3.0189474 -0.40386614 0.4688271 0.80589217 1.6869655 -2.6725402 -0.4132324 0.30525497 -1.9786711 -0.34256402 0.8136361 1.8174391 -4.3878517 -2.2758815 -1.0312712 3.578276 2.4897792 0.65103996 0.8794635 1.2532327 3.544479 -3.487647 -3.1219893 0.5346313 1.0167649 -1.3140222 1.1998225 0.6786666 1.7245377 -1.8757063 -5.0163255 -1.1608386 0.19026253 2.875037 -3.049793 -1.527031 -0.8452268 0.07810511 0.14921208 -1.3146794 -1.2167637 -0.23366679 1.8749294 2.0430253
74 -2.9404192 -2.4057512 -0.12631756 2.502289 2.0194 -2.0309684 -3.0529232 2.4554899 1.9884894 0.3475671 -1.1829253 0.9962511 -2.8093624 1.6193571 -2.173578 -1.1218483 -1.2609004 1.7612847 1.0638425 -1.0221772 1.0317996 -3.313039 -0.35668507 -0.019142319 0.106418215 -0.9997939 -1.1912557 -2.4553583 -1.5758274 -0.03412209 0.83737874 1.8639741 0.9975094 -0.23489194 2.818095 -0.51227534 1.0984639 -0.2794792 1.5438755 -0.31394342 -2.4216695 -0.24189079 -3.0206518 1.9729915 1.2692909 1.6166043 0.06491782 -2.3089042 0.58389 0.3029456 1.2647434 -1.1378187 0.73113805 3.0674539 -2.283029 -0.12873009 -0.60143286 1.782775 2.5213907 -2.5287027 2.5067577 2.2349834 -5.206987 -1.0730114 3.7039366 -1.0338753 0.961869 4.0390873 1.9357932 0.35774928 -1.2975842 -1.2494024 -1.2621169 5.876717 0.039227698 -1.9212776 -2.571961 2.3091521 -1.2435747 -2.5862255 1.5697911 -0.98547584 0.68213713 0.03496427 1.3131715 -0.25236693 1.9065309 -2.135044 0.53113174 -0.71124697 -0.027516654 1.3364965 0.7456552 -0.41897786 3.7537596 2.8528 1.294147 -2.2230675 -2.843852 -4.429678
0f 1.1550504 1.8537227 0.40618554 0.7648818 0.96000403 -0.5086385 -1.6189426 -2.4509046 0.1391554 0.23821707 -1.3638937 3.2430825 -1.01426 3.2620435 0.71655744 -1.7434175 -1.254819 -1.0095224 0.15372737 0.6864483 2.6098292 -2.5180745 -1.8155967 0.15761907 -3.2165186 1.275013 -0.47450837 -0.27632147 -1.4001994 -0.8022446 -2.798965 -0.8935913 0.96257246 -2.8269808 3.9749093 1.5142691 -1.8214014 0.15184765 0.08064281 -2.933884 1.5383854 -1.8623228 -2.6555254 1.9807593 -0.50322866 2.4471073 2.116142 -1.1305763 -0.75870544 1.0610956 0.43588835 -1.6091617 1.8252478 -0.43706194 -0.5327281 -1.5588323 -0.9470209 -2.6151347 -0.6509493 1.5014824 -0.23222601 -0.2040908 0.52610165 2.515927 1.9338591 -2.4203877 0.23734654 -0.06363723 0.9490027 -1.8259914 0.027203098 0.6654366 -1.6318308 1.8131353 -0.49758157 -2.7881947 0.15391342 1.3922553 3.5295146 -3.130571 1.9407597 0.25090712 0.49869603 -3.824066 1.4882911 1.475064 -1.3808963 1.1004186 3.6309066 0.7797436 3.423252 1.5392759 -1.5062754 0.031537812 4.3331923 1.211879 -0.41912115 -2.836642 -0.16503368 -1.9488165
7d 0.46427977 1.635277 0.840343 -1.3036535 -4.107156 1.377228 6.103459 -0.2379553 -0.29758778 1.0177058 -1.8090771 -1.9120586 0.1439498 4.3828406 2.1234527 3.6361647 2.0786672 2.5437639 1.7030675 0.52680767 2.2358568 4.269819 1.930796 1.5631825 -4.004643 -0.37760398 2.046998 1.723305 -1.2555052 -3.2732792 0.6717579 -3.1815856 -0.28759044 0.32270107 0.23481953 0.56792486 -0.83646864 -1.4708401 0.0037078643 0.28979036 0.0052032503 -2.7511835 2.015147 -3.5106223 -3.2880507 -2.3994675 0.22932696 -2.7839901 2.3013182 2.1309001 4.6845875 1.3109732 0.58605564 0.78571475 -0.75985134 0.83587873 0.10322847 -1.5078828 -0.9601607 -1.2079339 3.7675831 -1.8662196 -2.0658069 6.399764 -0.36401817 0.80643266 -6.477703 -1.2163326 -1.3112415 0.2646348 0.030881798 2.3819892 0.29545802 1.537822 2.5758374 1.2102885 2.3572602 -2.0356214 3.5646281 -1.4552333 -0.44348666 4.017229 -0.6473596 0.74950904 -1.2512819 0.98626405 0.58918256 1.7666734 -0.95993376 1.4508075 -4.228449 0.058042906 1.1692326 1.3402908 -0.3403631 -0.8282679 -2.9053802 0.5800986 -0.8391195 -0.40918976
5b -0.63503665 1.9094217 3.7313685 1.8478535 -0.98788726 0.8018145 1.6922573 1.7569767 0.06467222 2.6724873 -3.5238729 -3.5463753 3.7106855 1.0558459 2.5500093 -1.3662262 -0.471604 -2.2859762 -1.0331669 -3.017967 3.6461747 5.301077 3.3359072 -3.0963206 0.8036647 2.9100912 2.1224885 -4.581595 2.6153407 -2.556263 -1.0101261 2.4203308 1.6216332 -0.74622107 -1.1499712 -0.23238125 0.64033234 2.3737056 0.6502651 2.2168427 -0.5238054 0.64017516 -1.3622932 -0.060794644 -2.9323838 0.444505 1.6501794 -1.0549676 -1.014942 -4.093719 1.8993447 0.6217341 1.4409958 1.7901921 -0.15660253 5.9549217 -0.5186657 0.6638218 -4.455958 -0.35822785 0.40904355 -2.8561988 2.445786 0.42742664 3.3178806 3.1262515 0.26210707 0.99974597 -0.38354203 -1.5871991 2.1120417 -4.37458 -0.7428742 -1.7817286 0.1975378 1.4988134 -1.2808377 -3.3863335 -6.417821 1.5953118 5.0192757 0.42238918 0.6319895 5.412235 0.6629897 -2.4989386 -1.1772912 -3.5289676 3.627178 -1.6226168 -2.9937947 1.6959382 -1.4506192 1.7161036 -0.46902046 -0.51042384 -3.3115273 0.6110836 0.22276597 5.012475
c6 0.9618831 -0.4344078 1.6571506 1.8956381 1.6248758 -1.6031724 3.441759 0.2395371 -1.462957 1.6766872 -2.0384963 2.5107596 -1.4255974 1.3946079 -2.2975636 2.4893026 -2.0756395 0.68239766 1.848972 -0.22686571 3.601286 0.25599766 -2.6682281 -3.6773996 -2.733861 -2.6464605 0.86324084 -2.9130766 0.96931446 0.023985408 -1.3813838 -2.3137736 0.71251756 0.12927125 -1.2632434 -0.26621687 -1.1405619 3.1884243 0.18467416 -0.2509906 -1.6895678 -2.1197498 -2.0330017 -2.150008 1.2902467 -0.42793754 -0.30630925 1.73911 -2.140526 -0.105072595 -1.0021898 -0.78724957 -1.5582944 -0.2903 1.1801451 0.037428424 1.2783449 -3.0482073 0.0049628266 1.47301 0.3172695 1.2370367 0.16814202 0.076822884 3.537115 0.19222113 -1.5996443 0.25390324 0.8412413 -1.6785123 -0.17711426 0.88521546 -6.366398 -6.125214 3.7300477 0.4150158 0.24272606 -1.3436918 -3.2340896 -1.0402803 -0.62111723 1.5574162 1.411204 -2.2606041 0.5224561 1.6347728 -0.52142304 0.77326983 -2.7174382 -2.9056518 0.9528557 1.2268229 1.8364254 -1.0398409 2.6023912 -0.3384903 0.21921663 -1.3204539 -0.9559422 -4.551348
eb 0.019199574 1.3061625 -0.446864 0.34971663 1.0986849 -1.7965721 -0.81874686 0.1327173 -0.66578543 -0.33878553 2.1897001 -0.63083184 0.22698458 1.3365237 -0.4771535 -1.5560771 1.3837756 2.1090777 -1.0679314 1.2719784 1.4339325 -1.5666242 -1.9209697 0.38434082 -0.32352307 0.4344792 -0.8922561 1.6696975 0.61494637 1.8334196 0.179664 0.65976804 -0.04841817 1.1236036 -3.212358 -0.38995928 2.831571 -1.955078 -1.0118471 -0.7425819 -0.16967474 -0.42494038 -0.11182435 -3.4668665 -0.35587662 1.6931095 -3.5315144 -3.2342293 3.4478824 2.5159109 0.665864 -2.5427623 1.501107 1.9311563 -2.3065922 -0.59819156 -0.2925686 0.8732304 1.9561224 1.6040026 2.0457952 1.9114251 -1.6871352 1.181172 0.75682205 0.17260076 -1.6179968 0.55516094 2.5211911 2.6731696 1.316769 -0.7574047 0.92898554 -0.23406509 -1.0842677 2.4138603 -2.1282096 2.6999552 3.257823 -2.0652483 -0.4653118 0.78821653 0.24281587 -0.44578895 0.41879812 0.44180295 1.6565053 1.617241 -4.3118935 -2.0742521 0.74081206 0.8571567 1.0350815 -1.5202172 -2.4650574 0.28390518 -0.29186872 1.1403896 0.48220146 2.3933766
66 -3.0007992 -0.5348071 0.65698636 0.1765531 2.217251 -0.93052745 2.5934188 0.4005371 0.69751745 0.31936866 -0.24131182 -0.61872774 -0.7466897 -1.2623535 3.6392705 -1.3422618 -3.4676404 2.8157392 1.9445163 -1.6482601 -2.1976852 -2.0778148 -0.5376497 3.066022 -1.720011 -0.2952097 -0.21053761 -3.4527447 -2.1479175 -2.138925 0.173686 -0.8758582 -0.97236544 -3.9834886 -3.2396393 -3.9026935 2.8879251 -1.3138529 -0.6759232 -0.87008405 0.9627149 0.7455951 -3.3833969 -1.9508432 0.9194436 0.98834205 -1.2825342 4.081066 1.9775393 -2.5089257 1.349903 0.58119667 0.44429556 -0.11644828 0.60868496 1.4865248 -1.9339212 0.7966684 1.0635561 1.1616799 -0.9756283 -0.81618404 -1.1097281 -1.0767548 0.51833403 -0.8502865 -5.988101 0.64928025 0.724537 0.2830516 1.7823662 -0.448148 2.1213648 0.90960115 -3.4428296 0.75949943 -2.2989528 3.4801583 -0.36667198 -1.953775 0.31544277 -0.36647967 -1.1253382 -3.4048767 -2.6073563 -3.700538 2.1392355 1.8819917 2.5031967 1.9848194 1.4569533 4.3629103 0.46358562 -4.3156567 -0.302274 3.9070907 2.7066896 1.1661803 2.1964943 -1.3657786
18 -1.0265436 -2.6089604 1.4476998 1.374304 -0.6044883 -1.9040438 1.1909709 2.2319782 -0.26451918 -0.7995403 1.6141826 -0.20711534 1.6240336 2.0896459 -0.5788629 -1.1933749 -0.30350378 -4.793377 -1.219276 0.99719554 -0.06392722 1.128318 -2.472765 -3.894316 1.1931019 2.124263 -0.71672875 -0.3561834 -1.9519753 -1.5522577 2.837774 -1.8101465 3.2502887 -0.45171273 -2.0586371 0.8860978 1.2298392 -4.267506 -3.5532763 4.3101807 2.7126315 -1.118333 6.5865045 -1.9928193 0.3370873 0.17380825 -2.2688613 -2.953551 4.044248 2.6659281 -0.061864503 -0.92813104 1.4548306 2.842783 1.6827477 -1.6000477 -1.5219247 1.0931716 -3.4503644 -1.5800023 1.1850982 1.0868385 0.5742348 -1.5641463 3.312044 0.7493716 3.1826584 1.2440541 1.3254892 -5.246554 -4.0763645 -3.7472394 0.58063173 0.18046495 -2.896467 -0.0056425827 3.0313106 0.8648177 0.7772769 2.4470267 0.320572 -1.6050695 -2.5317802 -2.336299 4.2524967 0.33708495 -2.8464413 -0.12080129 1.3220592 -3.23473 1.9718634 0.23442025 -0.8348484 2.1771796 3.2331967 1.143998 -0.08585439 -0.325501 5.713547 3.417083
5f 6.0732956 1.1375544 1.0524861 -2.8908894 -1.7040316 1.4294888 -0.1739225 0.1984347 -2.652976 0.63840365 0.27322376 1.8141412 0.43490073 -4.436198 -1.0814433 -2.649374 1.3142412 2.8312225 2.7214093 -2.1489918 0.38725585 -2.327162 1.3018345 3.673383 1.7716104 4.6838546 2.3561633 1.4846004 -0.11441812 6.7030263 0.48892897 5.719194 -1.284353 4.7877016 0.056351904 -0.94477946 1.3889166 -0.84679985 2.8464954 5.219076 9.043822 2.09053 -1.2406324 1.4015018 1.5327593 1.843819 3.1444855 -2.4510896 -2.8329766 0.6929616 -2.8909874 -1.3773984 -1.4834021 -2.0720162 2.3499408 3.4716399 4.430517 -5.246968 -0.47203293 1.4804832 0.4188899 0.5230637 -1.2525709 -3.7840466 1.1885612 0.15249665 5.3045073 0.36868006 -3.457237 0.23797768 -0.6622548 -0.9242253 0.43453535 -1.5609658 2.213029 2.2462745 3.7864635 -0.18621835 0.08388687 3.5484233 8.127959 2.921351 -0.2256693 -3.1129124 -2.9416237 -1.9436046 4.6855574 3.4536946 0.5884543 2.4361317 1.1369907 -0.4915308 -4.14043 0.6340462 -2.9462633 -1.4698102 -0.4257608 0.4627187 -2.6638389 0.49964094
63 0.33483648 -3.7688408 -0.1329254 0.5752334 0.76887596 1.8895516 -3.673796 2.0639017 -1.7079623 -2.8938105 -0.9820725 0.9733756 0.40808073 0.0031405853 5.3159575 -0.5303039 -1.444214 1.0202 -2.793533 -0.95125395 1.2547853 -1.242511 -0.08240948 -2.7131393 -3.4821577 -0.2389126 -2.2402654 2.1983297 -2.3181734 -2.1968644 3.7429523 -2.8145678 2.8837621 -1.8833061 -2.111299 -4.012723 0.7634985 -0.73818135 -0.15340161 3.0228362 0.2029035 0.03362102 1.9174254 2.1673107 1.1662908 1.6442608 0.5895509 3.8933587 0.322877 -0.06419062 2.2867968 -0.35442325 2.1927078 1.6292552 0.10025534 -2.41307 1.0182698 0.81410265 2.061425 1.2318581 2.1712713 -0.49135244 -2.0254636 2.5464623 -1.7744197 2.3352149 -0.50290525 0.58800405 0.052804537 -1.8078709 -3.0050344 -3.0141675 -0.17383847 -1.5203301 1.2388642 -1.9406749 -0.01466529 3.0827398 3.960634 -0.2844874 -0.29562697 -1.9663291 1.4775054 -1.9155806 -1.2396393 0.19737294 -2.6537077 0.45420456 4.316972 1.2742983 1.998167 -0.5451127 -2.1503792 -0.68724346 -0.91959447 2.4302974 3.369642 -0.65937066 -0.65648973 -0.08995565
57 1.2077605 0.0038730982 0.6051827 -4.5559497 -5.312349 0.62738097 1.0164874 0.3438932 -0.93231845 1.9027189 1.5595835 3.2415695 -1.0189652 -0.107773915 -0.59289426 0.8508433 1.2289103 -1.3880221 3.316719 -0.57969654 -1.8670559 -3.17321 8.71219 -0.6672041 2.678275 1.529135 1.0823259 1.2454187 -2.3817458 0.15162544 2.127993 0.4633934 0.54216313 3.4871855 -3.6361668 -0.80507594 -0.07201975 4.655061 6.07524 5.748282 2.5440373 -1.716773 0.81575775 0.8451004 1.5962377 -3.7244794 0.46260634 -4.6520247 0.316848 0.44574308 -0.21839046 0.8585676 -3.122324 -2.0032032 5.8600545 -1.3904717 0.47761458 2.0283744 -2.242613 -0.97505206 0.04621104 0.30412152 1.0502468 -7.6280417 -3.550904 1.0376751 7.4722743 -4.1369257 0.8120274 -2.6499233 -6.545875 0.97853875 0.9011717 -0.7845194 -0.25620192 0.10303896 1.5395596 3.5187051 0.80616176 -1.1407927 3.8051825 0.16450924 0.015592862 -3.6378305 -2.9607272 0.7757878 2.3573213 -2.1596446 4.625635 -1.8384871 -1.8590646 -1.6660285 -1.4010373 -2.257951 5.1105523 -3.3105564 0.10910924 0.15152483 -0.24612105 -1.7722481
84 0.47819325 -2.8333118 -0.1318425 1.71709 2.2378664 1.0644202 -0.46235397 1.2532411 -0.39989755 1.000558 -5.13606 -2.3488503 -3.7911663 0.65152556 0.90996295 0.8893234 0.543823 -0.0954166 -0.28009346 5.650496 7.3751745 4.1543884 1.8955996 1.3980513 -1.6452813 -0.5822292 1.3289222 0.39000928 -0.24518868 3.5027108 -2.234837 -0.2812554 0.12824802 -0.10676786 -1.3975279 -1.4783508 1.896947 -1.4850008 -0.5569118 1.3166233 -0.6207346 5.6012735 -1.4279249 0.5589232 2.3092425 -1.5649339 2.2022648 4.980616 3.059618 -0.46932435 1.5397123 -1.2100226 4.5907807 1.5170652 -1.5180922 -1.7083112 -2.3591213 0.5844598 0.5936899 -0.5921638 -0.7692723 0.055546973 -0.5573344 2.9934468 -3.3282452 4.0791216 -1.3427122 -4.166276 -2.4274197 1.883874 3.770298 0.27509758 -2.337392 -0.28870124 -1.5227537 2.1400027 -1.358148 0.13457352 -3.5874965 0.77746034 2.1751294 -1.2527055 -0.68157506 3.5209708 1.7192233 4.1268764 -0.17117614 0.8465632 2.233576 0.72041845 0.5559834 -2.2663965 1.330959 -2.1432972 -1.4426217 3.236359 -1.4065609 1.3016213 -1.2101097 -1.2662474
e0 4.425734 2.7414138 3.5025864 0.97308993 -0.69441634 1.8157223 3.171591 -3.1505272 -2.891274 0.040627148 -3.518093 -3.2606206 2.071799 1.6440642 0.7021554 0.57870895 2.1433437 -1.1688776 -2.6706762 1.1739752 1.2321556 -0.45810246 -2.5119188 -0.08855207 2.7415087 -0.8167584 -0.044197332 -2.4587493 1.6100041 -2.784755 -1.3392516 -1.9940795 3.4685533 -0.9985134 -0.8487771 1.1872267 0.761293 -1.6519897 -0.9185088 1.808093 -2.801649 1.7574366 3.9553766 -2.0541196 -1.2436652 2.803327 -0.97641194 -4.9217877 1.4275783 0.18522656 0.19316517 -1.5244583 0.24311632 1.0779383 -0.70494944 3.1877186 3.720133 2.6628854 6.56121 -0.6185934 -0.4795151 2.0140069 2.268547 -0.3596783 2.2441463 1.4992408 3.1014078 -1.8457108 -0.04739102 -1.6961434 -3.4385035 -0.3312183 0.3588877 -0.34788144 0.47743395 -0.074555464 -6.4668317 -2.4390285 -0.7217015 -1.5745554 -3.5644405 -1.7639563 -0.5275478 4.2301655 -3.392019 -0.7179361 -0.73974377 0.2974945 -1.5847751 -0.35033998 -0.029577589 5.2843328 -1.4599533 -0.7898938 -1.3209629 1.4770484 -2.8146136 2.8934112 -4.605419 1.1591876
d1 2.6013799 -1.1068285 -4.036766 -2.7487826 3.2345243 -1.5292795 -0.34400666 0.67913544 0.1839026 -3.4660096 2.3744953 0.056627672 1.6898371 -3.0009956 -4.2058916 1.0659771 0.59687984 -4.108371 0.12365116 1.8123143 -7.530506 -0.32114407 -3.296019 -4.9641147 0.76600325 1.4074382 -1.1369616 -0.8577419 1.3090153 2.3814185 -0.71440834 -3.4644847 4.823548 3.8001208 3.97892 -0.918353 0.5650977 -1.9544256 -3.5369785 0.18224 -3.621276 -3.2047718 -1.004901 -4.3163724 -5.1143255 3.1153095 -0.6717838 3.568376 -1.6535922 0.3157564 2.3763235 -0.016607473 -2.013686 -1.4694072 -0.4792621 -0.064216845 1.9490384 -2.119581 -1.603051 -1.6259242 -1.5968333 0.9372626 -0.3323579 -0.43739438 1.8132224 0.10447914 -0.8345675 -1.8123739 -0.9706458 -1.4225028 0.93019825 -1.6582346 -2.0999613 0.48207667 -0.42802367 -1.9514192 0.20214564 2.491405 1.7044024 -3.0593011 5.7245283 0.9506487 1.2296364 -3.0395117 0.6885466 1.5667987 -3.4003203 -3.051604 -2.287146 0.25905716 1.9771116 0.7653304 3.5363257 -3.379586 -2.027868 -1.1765983 5.098419 -1.209874 -4.543936 0.4103973
81 -1.573698 3.0681102 -0.50028837 -2.931878 3.7845862 -2.2671504 0.6005437 -0.5429617 -1.6782694 2.1771898 1.4067867 -4.0988555 0.16990365 -1.4025146 1.0882517 1.3885772 1.4841187 -3.1362872 -2.173186 4.9581885 -2.2370067 1.2290123 2.6246915 3.5256665 -1.3242078 -1.699946 -2.1467075 -4.224552 5.792935 -1.1426762 -1.0753398 -2.0606785 2.0716972 0.79884684 -0.09395384 1.6226408 -1.993756 -0.0009973887 3.088833 -3.6981235 1.093882 -2.6079297 -5.5828037 2.7631927 0.10861529 5.3638573 -0.53049415 -4.2435317 1.2721759 -0.78850335 0.2838986 0.25640172 -2.0145001 -1.4737902 2.8362036 -1.6258147 -3.2964497 0.79985726 -1.3480564 2.5481534 4.215542 -1.4294548 1.9987257 -1.9065377 -1.047041 3.0797472 2.996355 1.0210209 2.428316 -1.5380048 0.86566913 -1.6472052 1.8714968 1.2019489 0.7262405 -3.5070245 -3.6687071 0.3627578 1.1022692 0.06681315 0.37260604 -2.9761128 -2.3997684 2.6000123 -1.6601623 -4.9086304 -5.3503714 2.0321102 -0.58345 -1.7364491 0.24595799 -3.954795 0.12101657 0.9989612 -2.6607218 -0.9002588 4.3803883 -0.35134116 0.98988473 0.19858836
5e -1.3978131 2.5922205 -3.0619516 -1.5735892 0.7023943 0.3123646 -3.200171 1.099768 0.08034277 0.3592583 -0.42829826 -0.890923 3.3546882 2.1271594 4.391135 1.4592557 -3.1736147 1.5516813 2.7683997 -1.9149148 -3.4411392 -0.71692175 0.27385706 1.7854707 5.658666 3.0083876 -0.6736918 -1.4066712 -2.2823408 1.295222 4.56336 3.552461 -4.4508624 -4.018884 0.17111315 3.2475166 0.43379387 4.0417047 3.2613344 -5.3509674 -1.902477 1.828674 2.0320575 0.7228422 4.2336884 -1.5578533 2.1662593 1.0015179 1.0074216 -2.3693795 -5.998 2.1277869 1.9578642 -1.2200887 6.030212 -0.6678708 -3.5208926 0.52256614 1.3975611 4.5671372 -2.2265873 1.1129485 3.0968122 -0.82466406 -2.5445395 -4.090904 1.9358481 2.507569 1.7920005 1.115289 7.0996747 1.2846345 -1.1023047 1.4998604 -0.27532175 -3.1755722 -0.073898986 3.0305934 -4.9639297 0.081213236 4.7036557 0.703338 1.454249 6.6288505 -1.9705411 1.0923952 -0.44970068 2.4581115 0.41299066 -2.2081175 -3.9627209 0.42328706 0.8871086 -1.4257244 -4.2798576 -1.2857692 0.20985065 1.694061 -2.9364135 1.0703838
75 5.4485154 -5.711793 0.61413956 4.8295274 1.4865606 -2.4747276 -1.8782995 3.79166 -2.1149116 -0.3760584 5.5900097 0.12542804 4.0075884 1.6569076 -3.5367637 1.2185814 1.6930043 0.685543 4.6743655 0.8764464 2.0694914 -4.4884152 -1.3214023 3.9861708 1.0347241 -4.870804 1.1221395 -0.90562433 -4.0513086 -0.81269854 0.84655297 2.1320906 4.152383 -1.8183684 -2.290971 4.675087 -2.036025 -2.5685852 0.47486886 -0.85934144 1.329003 1.4923105 -4.0778446 2.7920115 3.2018113 2.4679375 0.6661547 -1.6342071 -3.1068954 6.378967 -0.16802964 -1.8966024 0.42115223 1.6721727 -3.1128767 -3.5587184 -0.32052928 -1.5960765 4.063087 1.2248006 -2.5869572 -2.5571334 2.1426864 -2.1295564 -0.47041294 -2.5126846 -5.448811 1.4958628 2.72145 0.08516158 -2.0486894 2.158434 -5.303784 4.4856815 3.2684522 1.2249322 0.5980404 5.0169997 -2.3691447 -3.9232907 -3.0456145 -0.13529871 2.1495402 1.9465371 -1.5382135 6.0641294 1.5033001 0.90446097 -5.035226 -3.1076653 -2.7103128 -3.7646894 2.8778758 1.5925298 1.1931281 0.43573073 -3.887505 -0.52466834 -1.3684816 -4.945573
56 -0.30089334 5.9441376 -0.43381235 -4.365764 0.10218787 -1.9799918 -0.99432194 -0.32567176 0.3762363 -2.2930758 4.265081 -3.6052907 1.3464923 -0.0129053155 0.8579391 4.154473 -3.785218 4.4532695 -1.5200543 1.5998123 -4.830949 -0.21073712 1.8112977 2.7874198 2.3282466 0.55711967 1.1329889 0.2404813 -3.3396356 0.93172103 3.3446085 2.9412146 0.32214278 2.169797 -0.51056826 2.4091568 -2.0242848 2.935752 1.0584898 -2.175668 1.9593431 2.2038982 1.310218 3.0337632 3.7271361 -0.4797992 2.7770958 2.7615342 0.47436702 1.2064991 0.9804654 1.8741977 -0.5540711 -2.8400018 6.8874 1.5446769 -0.20538741 -0.18334624 1.2778969 -1.7758985 -0.11100534 0.48884434 0.2157138 1.5033098 -1.4372299 -4.301869 -0.9298155 0.7973779 0.1724515 -0.22945319 1.2740675 -1.2275926 -2.1146016 5.627036 1.6825105 -2.349848 1.2703987 -3.5082448 -1.277911 6.129838 3.0354614 -3.3198793 -0.4750389 0.9915278 -0.46879524 -0.49400428 3.7745454 6.9676676 -0.23491785 -3.6708205 -1.2453375 -3.880931 1.4870973 3.1547093 -6.5774465 0.45991924 4.609045 2.268182 -3.2752368 -0.7365087
94 0.6489246 1.233567 -3.384559 -0.7414903 0.9201475 -0.031488787 -1.171267 3.95947 0.36561266 0.16118823 -0.3654947 -3.885124 -4.175243 -2.4843035 1.1335906 1.3460941 -0.50490636 -3.0132515 -0.28085822 1.9400234 0.53468937 -0.5162236 -2.895303 0.61332464 -1.238534 1.0460995 -0.21429636 0.58019805 -0.21113475 1.9130825 0.32822672 -1.0584133 0.35533792 3.1803133 -0.9832648 -3.8720207 -0.03455267 -0.29950842 0.124546 1.4979848 2.6884518 1.8040829 -1.7119455 1.0900043 -0.4283431 0.25453198 1.3941867 1.3309722 -0.87930155 2.3856518 -1.4800239 -1.8547238 -1.0042162 0.02304434 -0.94513756 -5.7008066 -0.07287404 -0.13364957 1.0717438 -1.9303391 -0.1679321 3.545931 -0.20344205 2.831463 -0.9822293 -2.1321843 0.6743622 0.17006382 1.4554332 -0.7057647 3.137434 2.2838614 -2.9565187 -1.206289 -2.4677567 0.85304075 -1.4321795 3.4396167 -1.059969 1.8006562 -1.6753277 1.1152493 -1.4584295 -0.62898606 1.144844 1.613654 -0.8994589 -0.59072006 -6.6762 0.22963664 -2.2953835 -1.2969505 -2.0342844 -0.51673985 1.7653222 0.5690091 -0.31525737 0.36759856 -0.36777055 2.4331503
b6 1.5194155 0.21206537 1.430307 1.2497256 -0.6977504 -0.834149 1.5112894 -0.3072769 1.0587952 0.5992831 -2.6647701 -3.2986212 -5.335283 2.4847753 2.943607 2.4665852 -1.1808676 -3.358821 1.6469784 2.1947684 1.2580596 0.8302584 -4.5475426 -2.115833 -0.27045426 -0.32646963 -0.9414093 -2.1952584 0.54365396 -1.2704505 -2.4345891 -0.45291835 -5.5300713 3.1362514 -0.72241193 2.8510108 6.0614004 -0.11614849 1.4219445 -1.7899926 -1.9089227 0.07145068 0.46857008 2.6271718 2.5454824 -2.007936 0.2718042 3.0619164 0.37625518 -2.3438904 4.608381 -4.903469 -1.8780818 3.2705789 -1.180729 -0.2703253 0.6984426 0.75080156 3.4442708 1.7987248 3.6653993 2.0672312 2.130238 2.6209817 -1.912266 1.8449734 -2.859171 -5.3718 -0.8780901 2.790781 -2.0383434 -1.1894686 0.3840647 2.3593202 4.463199 -0.79153085 3.7836406 -1.2458142 0.8058189 -0.022093115 -0.13951148 0.025658837 0.16032758 -3.3282142 2.3508859 -1.3810257 -1.5687008 0.78610504 0.4094044 -3.489826 1.9444228 1.5648707 -4.0085306 -2.2051802 0.988493 -0.21952963 -0.10809699 3.0743957 2.6268692 -2.5923436
05 -4.364312 1.9532077 0.10214403 -0.029272147 -0.55621296 -1.1720352 -0.78448164 -1.6481569 2.9191864 -5.2756977 -1.0473195 -1.103234 -4.736147 1.6973038 2.2337682 -0.6858118 -0.18947056 -4.600768 -1.4897019 0.33182186 4.038455 1.3510383 -1.5455143 1.3444923 -0.39337933 -1.6880802 -3.4340706 5.0199533 2.0866852 1.6772183 1.5607785 -2.5796769 -2.9636397 1.7197484 2.5801477 0.48176375 2.4013832 -2.1612713 0.26976278 0.052098263 1.2858475 -1.1100944 3.526114 -3.1429033 -2.0487814 -0.45752984 -0.7655623 -0.7182109 3.1252134 -1.5957164 0.48012957 0.67096806 -0.22919059 -1.3177956 -3.7062585 2.8606088 -2.335023 1.6814933 -2.947437 -5.3789544 0.59178054 2.6409588 -5.3313828 0.05569445 -1.4280487 -1.3808976 0.4073066 0.9071075 -3.3441076 -1.2641438 -2.4059682 -4.0765066 2.2732036 -2.4981828 -2.6924894 1.2795962 -0.41074833 1.2162799 6.755694 2.7436347 -0.13864098 0.10029442 -1.043494 -1.9158663 1.1897153 2.5182707 -2.673268 0.85974556 2.104368 2.7498953 2.175122 0.61510164 -1.1123488 -1.4573979 0.5105847 3.0017974 3.929401 0.9892639 0.4849854 0.02990432
50 -0.36580202 -0.034571458 1.232515 -1.0459491 -0.8136499 -0.40555444 3.262263 -3.1239016 -0.17036827 -1.1943915 3.437696 -1.653172 1.8313613 0.34723905 0.17348385 1.7310781 -1.6291105 0.5387118 1.1906148 1.9556255 -1.5977886 -0.16632861 1.6497555 1.8291672 0.49031335 -1.7824278 -0.8864824 -0.23674683 1.4167823 3.8948364 -0.9168412 1.7673075 1.8476026 -2.7198658 -0.64519113 1.4328846 -2.6154466 2.1982608 -1.5735929 -1.8702494 -0.8823913 -0.4184897 1.6120905 -0.70781213 1.577179 0.41800073 -0.60902995 3.7595026 -0.34855804 -1.8850313 -0.8275402 0.6115201 -3.5252063 -3.4732523 -2.0383925 2.600746 -0.51994395 2.314112 1.0807844 1.9314119 2.3981807 -0.18570997 1.274775 -1.1822187 -1.2420919 -1.7957423 -4.127716 0.25401375 2.2246406 3.072194 -0.0040546604 0.88700616 -4.1853952 -0.06874239 1.6938884 -2.1661978 -2.8857424 -4.0727406 0.5176739 -1.5050706 -3.935076 -2.2652447 -2.928973 1.7626971 2.4505982 1.1961838 1.4285612 2.349621 -2.116677 -1.5400542 1.2511247 -1.6489568 3.9813416 2.9080148 -3.2799256 -0.47422388 2.0048833 1.2257051 1.6924472 0.2471611
d0 -0.89868206 0.32291546 -0.87893105 2.5193417 1.610874 -0.6739055 0.6786921 1.5112878 4.492425 -1.9904852 -0.28835538 0.54027826 -4.3121634 1.9583949 -0.123454906 0.3690639 -1.9214038 0.347791 -1.7462704 -1.4011716 1.1493595 -3.13485 0.28965646 0.14969166 -2.599003 2.2482307 -0.89662814 3.4123032 2.318487 3.9570246 1.7889853 0.06103457 0.633488 1.6927664 -1.6390064 0.76643705 3.8017104 -2.2105663 -1.2346957 -1.3406181 -2.0235775 -1.117976 -3.5765936 0.9389948 -0.5851514 -0.386462 -0.4929918 -1.6986762 0.70793146 -2.7362928 -1.447919 1.2622069 -1.1783702 -0.6287711 0.69735163 0.898834 -0.68792635 0.50990915 1.4163152 0.32858947 3.0185127 1.0827755 -1.6639034 0.90250593 -0.302872 -0.16672322 0.53861654 0.33519498 1.2158308 3.5894375 -1.39979 -1.7924888 -2.3617148 -1.797054 -0.14259267 -3.0566366 1.7300932 -1.0098203 0.09136289 -1.613387 -2.413465 1.8457955 -7.311515 -2.2469003 -2.7276337 0.64347464 1.0758588 0.35825887 1.5494812 1.3760874 0.55687195 -0.51288563 -0.8282721 2.6646593 1.3830738 2.7919998 -1.6529385 0.1768344 0.59172124 0.81099325
f3 3.6935072 0.050141804 -3.783842 -0.44617727 0.8897867 3.3053713 1.319012 -4.8188076 0.37742567 -0.9071348 -0.31515795 3.0027432 -0.6625055 2.879569 3.812575 2.461072 -0.87360793 -1.2205545 -2.1730053 -2.3368394 -0.24864717 -2.66325 -1.9471506 -0.34642076 -0.50407827 -3.4398832 -1.6205318 3.1910229 0.39575106 -4.0145326 2.931073 2.0585303 -0.21712504 -4.9551606 -1.1214826 -1.4314722 -1.8407307 -2.7795725 1.7800566 0.73127514 1.4129128 -0.607035 3.2295918 0.15096563 -4.02438 -0.6996224 -1.5664506 0.93171984 0.20262997 -2.107085 0.0627652 -0.19452126 4.828721 1.3383716 -1.5153972 -0.047547985 -3.6863952 -1.3615086 0.31850234 1.8063598 -0.3866171 -1.9063015 -0.10269264 1.8389599 -1.6184835 0.8442529 1.8889928 -0.5314427 -1.9500626 4.0753927 1.1112081 -0.8951236 -0.83487546 0.5200048 -5.5924797 -1.2216876 -3.811277 3.553841 -1.1302593 1.2665434 -1.4412029 -1.9931023 1.5630491 -2.0472627 2.7333448 -3.7239623 -0.6694517 0.9880268 3.1106167 -1.904058 2.4847898 0.03304894 -0.50649995 0.80217254 1.0670532 1.620869 0.06786992 3.8468184 -0.93175036 -2.4658
28 0.27201822 -0.433216 -1.7840283 0.5969177 1.331479 -0.2593083 -1.2398095 1.0246497 -0.86743385 -0.009851517 1.3673496 -0.96212983 -1.1588039 -1.1482028 1.2746396 -1.6392406 -2.5951524 0.80522615 -0.9775982 0.16155733 -1.2064115 2.4004052 0.72034234 -1.3559178 -3.7636433 0.087573566 0.66465664 -2.85681 -0.63527423 1.6440451 2.135766 -0.44882968 0.83074504 -1.554123 -0.13551079 -2.180846 1.4744836 -0.17485042 1.4381436 3.2864268 1.5109189 -1.0743448 0.09117928 1.8161157 -0.8598067 0.19350803 -1.8478526 3.0442412 -0.12260171 -2.1607583 -2.0327902 3.4483094 -2.7774804 -2.2747464 0.3491352 -2.0046537 -2.255908 0.36006692 0.065027416 -0.25487584 -0.47619933 0.8337084 0.89958024 -0.5747304 0.52597475 2.2619367 3.4382465 1.2549517 1.970535 1.0029706 0.39807412 1.7989875 -0.24692972 -1.1639383 1.2679622 1.0881598 1.397022 0.010554143 1.9299256 -5.3565593 -2.6781893 -0.7056554 -2.9197285 2.1373093 2.4392014 -0.058795232 -1.2653416 -1.007403 -0.9831336 0.72866374 4.7272425 -0.04668232 2.151815 0.64001215 0.08165538 -0.7328557 0.55550396 1.1876706 3.769734 2.6104991
d9 -0.04807055 4.5835295 -4.7588744 -3.3957453 -0.17699979 -1.225657 4.781202 3.117165 3.6392286 -1.0163478 -0.3936789 -0.5265111 -3.263736 -1.2577261 -2.5945306 -4.7586317 -1.0561409 0.5139315 1.996386 -3.7333653 -1.9024203 -2.1702237 -4.14746 -5.009672 0.5821803 3.95533 2.441361 -5.1822352 -3.291593 -2.1343057 1.9812084 0.20425132 -4.34288 3.351455 -0.57986677 1.0151194 4.089774 1.0627543 -3.4067745 1.3716536 1.8857999 -0.6685553 1.0716722 1.0741327 -5.914866 -3.014583 -0.0903054 -0.098226935 1.6472847 -1.860937 -1.5514237 0.08122062 -0.99691045 -0.88292116 3.282887 0.836351 -0.51417154 -2.587018 -1.5142403 0.28197342 2.6209977 1.6179782 -4.9145093 1.8538582 -0.18836862 -3.769818 0.09341557 4.77371 -2.1938899 1.0465437 1.435243 0.63602394 -2.1737769 -0.29060566 -4.5851407 0.5836344 0.949268 2.7024443 -4.364095 -3.5260105 -5.125137 -2.3391492 1.4993851 -0.30021176 -0.8888979 4.235052 -1.1604716 1.5526785 -1.0656933 1.8997172 1.1035609 2.4170392 5.677465 -0.43746263 3.0114832 2.1681898 0.40220326 -1.2296145 0.78546494 0.096543595
fe 0.34502873 0.6514319 -3.1267114 1.4229922 2.6439817 1.604807 -0.4623078 -3.2092805 -1.2470816 -2.17088 0.85170126 -1.6010389 -1.1913761 -0.12656416 1.3756372 -0.47833654 -3.8589232 -2.3799083 2.022139 0.9084035 1.9587629 -2.1467202 -2.9370098 -2.3668413 -2.5052133 0.5051046 -0.66018814 -1.2906405 -2.2380412 2.3690758 0.58962345 1.6088265 -5.4451833 0.54646367 0.62793696 0.74961185 0.9856446 1.33503 0.2968064 -1.985639 -1.6038684 -0.800225 0.29430598 3.0833416 2.4845412 1.0414383 -0.9089697 3.374313 0.091125585 -0.66204536 0.28637275 3.6561582 -1.5601689 1.780867 -0.84859973 0.3870371 0.43539292 1.8353633 -1.0327123 1.5639087 -0.30331805 -0.026469097 -0.23349148 -0.21526669 -1.3768866 -0.9439904 0.5989527 0.35854802 -1.9004395 2.9984992 2.5145903 1.716675 3.1565633 -2.1527362 -1.2630633 -1.2131022 0.19842465 -1.1583523 0.80969125 -1.2623276 0.3172882 -2.341973 0.33997184 -1.7667879 1.5010153 1.1934539 -0.30701664 -4.6988635 1.1965741 0.54508245 2.8626766 3.4320364 -1.9645785 0.90697974 3.2631643 -0.10171754 0.85096157 -2.7407944 -1.0455644 2.4129915
95 3.7583077 -4.088251 0.67182785 5.712247 3.2559566 2.8570526 -0.4095998 -0.93485713 -1.6473289 -1.730618 0.50795656 4.5101366 -2.532495 2.4619608 -0.8798055 0.11750724 -4.2695303 -3.6809082 -2.0968997 3.9037197 6.152825 -1.6853431 -1.2211734 3.8501184 0.35821924 -3.775993 1.1366613 -0.21377291 1.0125387 -1.3134154 -3.5092912 1.8989431 -1.422464 -2.221847 0.7945741 -1.8219265 3.8937469 -2.3931746 -1.1686164 1.0787667 0.16005602 -0.956935 -1.5615803 2.1040537 2.1864817 0.8019874 -0.8404902 3.0341458 -0.5092471 0.09817771 5.4364753 1.7834675 -0.65380406 5.7159257 -5.0313244 -1.1337115 0.41623557 0.426253 -1.177043 -0.7713617 -2.3651526 0.21157978 0.22716501 -2.455515 -2.5939524 1.1304303 0.894505 -1.5936704 -2.098877 0.3769033 -1.6786286 -5.186222 -1.6531154 -0.9159803 4.2673764 3.9351664 -0.7057495 2.7441576 -2.292414 -1.6405288 3.9014783 -4.295808 -2.3195918 -0.92576313 1.2830361 1.8608514 -1.2075772 -2.2217646 0.17792308 -0.9153725 4.463171 2.451713 -2.232203 -2.5106137 0.098664835 2.4851587 1.645729 -0.35968232 1.9687167 -2.9991796
54 -0.08319723 -2.0695217 -1.7287018 -1.7603413 1.4958013 0.83093226 0.18965228 4.1782985 -0.8647033 -0.51650417 3.2984529 -1.5059506 2.3141167 -1.5735265 0.30490372 2.8090696 3.699755 -0.8197525 1.9188162 5.2311287 0.5299848 -0.16124162 -2.3989418 -3.6608417 -0.13619146 2.7765434 1.4983081 1.9859117 2.3546383 2.0696113 0.52348167 -1.3407824 0.6515006 -0.9221821 0.5266275 0.6771574 3.0107818 -3.7643666 -0.7891659 0.8265076 -1.414929 0.035444222 -0.2129517 -2.2889307 0.732214 -0.015511914 3.3512404 1.2039764 2.0646167 0.21516216 0.8132653 2.0613117 0.6120775 -0.035343233 -0.7213137 -0.024594536 0.3531504 1.3659327 5.239666 1.8529696 -0.08038529 1.209456 0.0023507108 -2.854763 0.9507503 1.8484359 -1.0082192 0.8348209 0.91980326 0.8959403 -0.41218904 2.6249735 -1.2433922 -0.19985132 1.9075899 -1.2501445 -2.5727096 -2.4187627 -0.5294154 1.0360979 -0.8828004 0.96508694 1.4424995 2.9448638 -0.09437065 2.7371402 1.9492855 -1.88629 -1.6375897 -2.5107217 0.26625493 0.781649 -4.395331 2.2503178 -0.10601541 -0.5947245 -3.8967204 -2.40001 1.8342475 3.5657024
64 -1.9190774 0.012979178 -0.34056744 -2.3547895 2.1882417 1.4419504 -0.7515786 1.3055172 1.368435 0.24264735 -2.209586 -2.534915 -1.4204738 -2.074422 0.7871929 -2.1498792 -1.5939407 -0.9191572 2.0092978 1.8677789 0.93244493 -0.14722483 -0.3463158 1.1200328 -3.4756534 -2.6765838 -3.6944108 -1.6871516 1.5621896 -1.5770816 0.7767065 -1.9312977 -1.8934143 -0.13878198 -0.768883 -2.6448267 1.8400298 -0.14813726 -0.38132596 0.38916042 -0.27968225 2.2889693 2.15121 0.32154104 -0.9906287 -0.06116548 -0.08021017 -0.24640971 -1.7616646 1.4072698 -2.632605 -1.3060313 1.4447206 0.5872024 0.25061306 0.32915044 -2.782393 -2.7767897 -0.47022623 3.094392 -0.9905652 -0.794754 -2.70839 1.1713855 0.13365555 3.8212311 -1.4317359 -1.4133615 -0.46576908 0.51315325 -3.7296844 -1.9164648 -1.2424786 -2.1897314 2.3264656 -0.2198356 -0.16552761 2.1067753 2.4280484 2.2553563 -0.094358996 0.80451614 2.425855 -1.3439151 -0.22711268 1.0085393 -1.9271951 -2.1336558 1.6625552 -0.5430881 -0.86815786 -1.4230714 -1.788274 1.8662204 -4.320978 -0.18676299 0.45492697 1.0992566 2.7997518 -1.4088675
c8 -2.0785463 2.056102 -0.6520942 -0.11491091 1.218676 1.5111117 1.4576503 1.6665189 1.9551002 -2.370215 0.29124296 1.1622561 -2.0562923 0.1797152 -0.8528531 -1.1696534 -1.1226677 -1.4328046 0.70967436 0.40671507 1.5948755 -2.6534169 -2.1202369 1.7110777 -2.3336813 -2.5910249 -1.9371717 -0.95057476 2.8911724 0.90539134 0.34739473 1.287648 -0.359936 0.89784974 0.22646387 -0.4345006 0.29664087 -2.6367974 -0.28308526 0.02133785 -0.1389234 0.5233904 -0.9901807 -1.1385056 -2.1072886 0.73065263 -0.0883669 0.18635374 -1.1861705 1.1657983 -2.271621 -0.479145 1.4126332 -1.4256784 2.0399346 0.54133075 -1.4482685 -2.4116051 -0.3557864 2.1119192 0.30242187 -0.795126 0.05584239 -2.334245 1.3652767 1.5583519 0.8543062 -0.83844805 1.0825225 2.2511907 -1.6940614 -0.7928436 -2.0620582 -2.8086662 0.917823 0.073310174 -0.6262924 2.2125697 1.606244 0.9206107 -2.3262284 -1.2122617 0.18031563 -0.19361936 -2.922462 0.6209721 0.76007533 -2.3200197 -0.7219256 -1.0184227 -0.17518416 -0.11338501 -0.27997178 2.0608273 -2.4174914 1.6423174 -0.9423513 1.9866267 2.2337413 -0.8118117
ab -0.24986662 0.072303735 -4.1550193 -0.9958395 -2.4010184 0.26248676 0.28717774 -0.9509959 -3.6717079 0.79503447 0.8981056 3.2639532 -1.4445974 3.9601665 -3.465191 1.6319504 2.7598953 -1.4240016 1.1620471 0.17256661 -0.8216138 0.32248163 0.08731348 -3.6793666 -4.3924966 -3.6160727 -0.51337487 -1.1664554 3.498337 -3.0401611 1.3921762 -0.25512284 -0.11795148 -1.7227764 -0.009719696 3.5471275 -2.2654428 -0.5110602 -0.48712322 -0.27647686 -0.39562997 1.5076429 -0.58203936 -0.49322516 -0.018816203 2.1419861 -0.36251563 2.490539 -3.9389164 2.579584 0.3821595 -0.42634755 0.38145804 1.379247 -0.1763932 -1.299382 0.9392078 -2.6254573 2.3443165 -1.8338279 -2.5333946 -3.2255826 -4.7131414 0.0778068 2.7208261 2.4502492 1.6000912 1.08323 0.83728635 -0.085867725 -0.9365139 -0.50850016 -2.5475545 -1.1304178 1.198517 -0.61977166 0.18536294 2.0268698 -2.0865846 0.76435703 -0.44811592 -2.1911736 1.8069766 -0.66221654 -2.86553 2.2025905 0.6930277 1.5613 -3.0602543 -3.0491848 2.4866714 -2.3101425 -0.8437898 -4.1063786 1.4619675 0.31639123 -1.0850315 0.99889624 -0.19092046 -1.6281317
43 -0.32304057 -2.0001786 -3.0284607 -0.941437 1.1930307 1.383052 -0.62293273 -2.6622517 0.3701005 0.036821015 -0.86605746 -0.41025546 -2.4891262 -1.9326632 -2.467892 0.80450773 -0.066270135 0.22784393 2.7930303 2.4798877 0.89935464 -1.0540357 -1.8166188 0.8771222 -2.5505402 -1.5301366 -2.077008 1.6292653 1.7316468 -4.2361107 0.8140029 -0.49228638 -3.1788177 -4.70216 -0.40349287 -1.2557814 -2.1585562 -0.40181017 4.011352 -1.3463215 -1.8759751 -0.023828486 0.71059215 -2.3260076 -2.216287 2.2549927 -2.629773 -1.06694 -1.5569493 1.8884724 -2.811336 4.9079123 0.87790346 -0.16590834 1.8134625 -0.21111405 -2.0843968 -1.0920517 0.80241984 1.5197898 -4.405142 0.7744219 0.65510887 1.119197 1.3224685 0.95310205 -0.5966558 2.4922857 0.21362944 -0.75621283 -2.9213061 1.8851018 3.4520946 -2.5803328 2.1355019 -0.9199727 -2.4604616 -0.80622697 -0.32082787 -0.32265672 0.87285835 0.005743641 0.51609915 -4.2842593 -1.0117588 -0.5675657 -5.064416 -4.354386 -3.5249457 -1.945007 -0.48941043 -0.7697268 -1.3436303 -1.8379864 -3.922996 -0.5245061 2.9659111 -0.016107153 -1.1918615 0.058007326
e9 0.5293078 -0.20350875 -0.28746632 -0.5212512 1.1035199 0.4723689 -0.6204755 -2.9253252 0.84493876 1.560932 0.8592693 1.4075984 -0.8558113 -1.3278687 -5.236261 -0.076444946 2.135602 1.9896488 -2.7084224 -0.011545254 3.556974 -1.3640484 -1.8439224 1.7774252 1.0078769 -0.7239583 2.237729 -1.2382408 3.4080524 1.2434189 -2.2105522 -1.6400131 -2.073471 -1.175676 -6.439317 1.3425812 0.28310034 2.181047 0.64642394 2.8847244 1.088443 -0.051881775 -3.6940453 -1.2403187 0.9422406 0.48862663 -4.919181 -0.5705216 3.5910408 -1.7500935 3.9798226 -1.2337062 1.5277172 0.26627338 -0.2066445 2.548516 -2.318459 1.7306025 -0.3484261 -0.4285366 -2.4462361 -0.6391973 2.0293174 0.38407674 -1.7315975 0.29616675 1.6190218 0.08256609 2.0904424 1.3027627 1.375807 -3.422196 2.7902517 1.1035478 -4.2702527 -0.16716494 -4.337733 0.3720742 2.492934 2.5609171 -1.277194 -5.046845 -0.6742814 1.9357724 -0.5394886 1.5405029 3.5205858 2.727891 -0.85610795 -6.028076 -5.239522 -4.830821 -1.4060159 2.7972744 1.7526336 2.00501 -3.6820698 1.4253004 -2.3870642 0.0124350265
41 0.9713062 -0.5630611 -1.0529412 1.4229492 3.4805145 0.5698161 0.44679752 1.69637 -1.6437582 1.9198039 -0.40206343 -1.0559446 -0.33609593 0.6243521 -2.1650488 1.6579368 -2.5941749 0.28946385 0.7215572 -0.14010519 2.4807763 0.0854637 -1.149001 1.2181429 -5.4408517 -0.77283216 0.18513785 2.3354468 -0.72340316 -3.8881607 2.7838542 -3.3242056 0.29040328 -0.7054413 -2.4532797 -3.2421095 -3.3158894 -2.8107858 2.4377375 -1.7428113 -1.4171336 1.0165591 -0.69384 -1.6850626 0.5851156 0.23435095 0.27667075 -1.76462 -0.5585969 3.4481134 -1.6221519 -1.8261846 1.5681576 -0.36590505 1.2888702 0.36855128 2.9665947 0.08892114 -0.14274651 0.43737358 -4.3704753 1.1372894 2.7920227 1.5302526 0.83501613 3.782459 -1.4402941 -1.1518304 -1.7872207 -2.1879847 -1.8509574 2.3936822 -1.3965803 -1.1064552 4.602862 -0.8658259 -1.4079576 -0.21557164 -1.4414566 -2.8267753 -0.012070485 -0.8025981 0.012994695 -4.528329 1.0019219 0.8931555 -5.0588 -1.20701 -5.045273 -0.90810573 -3.0672622 1.1645901 -1.6320441 -0.0220381 -2.3389087 -1.1652879 2.5192196 0.0617728 -2.266103 -0.68303597
e1 -2.4351902 -0.95144165 -1.704868 0.6201243 -2.484863 1.538275 -1.5296482 -5.0456433 -0.42158407 -2.0945966 -1.1588165 0.03349551 -0.7021243 0.58271956 -2.262647 -2.3850937 -0.4453008 -3.0035095 -0.25143528 0.54848653 3.6989727 -0.29105863 2.5618439 5.1983337 -2.2461283 -2.318409 -2.7688234 0.7691488 -3.7577267 1.6914303 -1.072288 -3.7536497 -3.8901787 -0.88357675 1.4320335 1.2344754 -2.888459 -1.0721182 -3.474745 1.6522131 1.2239504 2.6401384 3.2802517 -0.03729256 -0.3482762 3.0087817 -2.4864783 0.17892073 -0.7042502 3.9056902 0.30770066 5.300521 -0.4559978 2.5278506 0.42808354 0.57592237 -2.1664314 0.9071426 -5.1724763 -3.0308568 -3.918342 -0.6118134 -6.663202 2.4623928 -1.8825046 -4.6375194 -0.2822453 -0.31933445 -4.979087 0.93833447 2.4552424 -2.354134 2.924926 2.8587067 -1.6660005 4.3731112 0.40578023 2.967102 -3.3999236 -1.9216155 2.5561066 0.6162384 -0.45215476 -4.057616 0.637971 2.804058 0.72174376 1.401181 1.5200975 3.525773 1.6907985 3.0516484 3.4461102 -2.6332872 3.1087327 3.0170531 -0.5880679 2.280927 -1.020355 1.434882
d4 0.9652041 -0.3834414 1.2344579 3.5673807 -0.32622507 -0.88264567 0.22157015 2.0053244 1.9138653 -1.4017599 1.6853108 -0.5713812 -0.24834225 -1.5786701 -0.12599078 -0.123378806 -0.46754587 -0.9875969 -2.1263397 1.7641524 1.5738732 -1.4896132 1.1456202 -2.1563866 -1.6905152 -2.1490576 -1.3745917 -0.2303151 -0.6812071 0.18570836 -0.59608465 0.87597096 4.000197 1.3110108 -0.7349388 -4.5509024 -0.6053158 3.429263 0.5081588 2.070391 -2.2166915 1.6390158 -2.0080462 -2.2814636 -1.9970945 0.66778797 0.9863433 0.19149424 0.03974434 1.0005056 0.06832089 2.0460181 -1.8450682 -2.5545046 0.18907066 0.29312262 0.14394015 -0.7604903 4.118937 -0.8810702 2.33581 2.1644185 1.4492038 -0.06430395 -1.6362339 1.5858095 0.7515625 -3.940389 1.8588254 2.544703 -0.83409095 2.058539 -0.787377 -0.4386888 -0.53138655 -1.106115 -3.758498 -1.904179 -1.9909357 -1.9748768 -3.632829 0.4693475 -2.772966 0.82596993 -0.201266 0.2908748 1.288698 -1.6858239 -1.6907203 -2.1955893 -0.08506207 -0.8492292 -0.28418288 1.3157231 0.82386905 1.9167266 -2.3828752 -0.26130626 -1.8963525 2.0806248
40 -0.79390174 -1.9057181 0.36783937 0.48054653 -1.0839593 -2.4460027 -0.38817263 -1.2798173 -1.8698767 3.6847591 -0.059256013 -0.012587991 2.4310496 -1.8992486 2.3506072 -1.119589 1.4480642 -0.3027979 -1.6295598 -0.20725891 -2.1491761 -1.1407056 0.8562899 1.6921554 0.8690047 1.5631187 0.5555951 -1.1314579 0.6257342 0.6680981 0.13253115 -0.020316834 3.5155222 -3.7496712 -1.4406615 0.55637693 -0.055758238 -1.3120152 2.5402958 1.5851316 1.1405772 1.151682 -0.92393345 1.4133934 1.7570665 1.6841313 -1.0261885 0.84732306 0.36670077 -1.0883985 -3.1347096 0.48354733 -3.3862305 -3.791792 -0.009501296 0.21231626 -1.1256704 1.4811703 -0.36853635 0.9492261 3.1004665 -0.81657594 -1.1337101 1.4180026 0.16841577 -2.88125 -3.3071566 1.183368 -0.16138384 -0.36556908 0.5866304 1.7369245 -1.3029851 0.95048547 3.4479272 -0.054390363 0.19258823 -2.0158036 2.6161578 -0.88425475 -2.329164 2.461454 -1.4640449 -1.9527907 0.39774492 1.3975704 -0.28039506 1.9852432 -2.3901057 1.8431143 -1.6295063 -2.6840196 -1.9728215 1.3997787 -2.9860609 -1.2173488 0.9976694 -0.7601278 0.96223456 0.50665677
a0 -1.9839063 -1.8982128 -1.0169266 -4.624936 0.002199009 3.7852452 1.3419695 0.78687614 0.29188743 0.033015512 -0.5095898 0.497499 -2.761916 -2.4882748 -0.05261809 0.36114025 2.0003238 -2.3539302 -0.30972245 2.5379658 -0.046704367 1.2003144 1.9143444 1.3513306 -0.66551834 -0.3192148 0.019465195 0.19696786 1.5756477 1.2104673 1.531206 -2.3411582 -0.39278942 2.6522076 -2.4562063 -0.52341735 -1.8062307 -0.99015015 0.3554373 -0.9176042 -2.0832798 1.0420419 -3.77043 2.0232065 -1.8889382 -0.79730844 -0.113709606 1.9493587 -0.8030354 -1.2503636 -2.9815276 0.07194424 1.9657844 0.05827415 1.3392603 -2.7543383 0.4739942 -0.95727676 -0.45312917 1.474385 0.61718774 -0.16753197 1.4764558 -3.084543 0.4748626 -0.9423696 0.24249272 1.1877698 2.3162847 1.0052017 0.7093337 0.15168709 -0.9727809 0.31681538 -1.0547744 -2.27076 -2.1040769 2.3297749 0.8415385 -0.34726986 -0.3702206 -1.8042688 -3.5033872 1.3275458 -1.0730932 -1.3586905 -0.728088 0.75749576 -0.7625625 -1.2938129 -1.4317166 0.29490644 -0.6409311 1.4640772 0.23842894 2.062769 -0.55101013 0.88208234 0.43788472 -0.80616933
d7 0.56857336 1.3729146 -1.213873 -0.23565158 -1.7182618 -0.07199016 0.41483152 0.6610958 -1.4447374 -1.1339551 1.8984791 2.2981918 -0.5368352 3.1875901 -1.5645553 2.2748718 1.8874273 1.0183522 -3.5743575 -3.0320208 -1.9916083 1.530068 -5.38743 -1.8214405 -2.1615438 -3.9807005 1.8553754 -2.296064 0.21671651 -0.9808278 0.61861056 1.4057468 -0.45359033 0.5712323 -3.2453096 -1.0046012 -2.4948518 -0.06437897 -1.1164868 -1.6800948 1.898115 -0.59333855 -0.48997325 2.371581 -1.1907148 -3.9328048 -3.7782643 1.1647645 -0.4424408 0.50956607 3.294502 -1.4615033 1.7327354 1.3111037 1.2258967 -0.887617 1.9416325 -2.963606 0.26280805 0.981478 -0.8216067 2.0823228 -0.14120251 1.2581933 1.3223419 -0.57230574 1.0801343 -0.841781 2.2457783 1.7812607 4.370848 -1.9881552 0.8450494 2.5440712 -2.7577155 1.796302 -1.888548 0.13415882 1.2246087 0.67837006 -3.6262784 -4.395435 -0.8927315 1.9604373 1.0349786 -0.05001228 1.9128181 1.6184798 -2.3461392 -3.7758563 -1.5707489 0.9576815 -0.012084635 1.8134351 2.3797543 -1.0833267 0.68872094 -1.5944589 -4.1193824 -1.1356708
5c 3.0298672 -1.370247 -3.9794185 -1.6168612 -1.017208 1.908912 1.7562542 2.62693 -1.5778531 1.7255273 1.2722068 -1.7319747 -0.86864793 -1.3801212 -0.9942439 2.455594 1.3325886 -1.4064952 -0.6218095 2.5688262 1.4981047 1.4242061 -0.015838677 -3.2390409 -3.350739 1.3375219 -1.2563286 1.8025837 -1.3145343 -0.37543058 0.9304355 -2.9691045 3.229741 1.3459702 -0.32761964 2.626357 -0.015293403 -0.19365987 -2.9208384 2.7045994 -1.8297883 2.043817 1.4044886 0.17713198 -3.2587998 -0.7403373 0.06675063 2.5911648 1.4106764 2.6672652 -1.2661753 2.4986002 -2.1846988 -1.2969172 -0.73802006 -1.893345 2.4364815 0.23224345 1.8799597 -0.032069366 0.9582453 0.14078629 -2.1776588 0.63611394 -1.1538829 -2.434668 -2.311514 -3.560503 -1.4755402 0.1389109 -0.14420357 2.585578 -1.1388478 -2.327838 -2.3087924 3.8617225 -2.7421212 -3.52356 0.99186873 2.0528445 -2.70295 -0.026162365 1.6892434 0.21899785 2.275778 0.3505293 1.1236101 -2.905767 -3.465346 0.14112096 1.1512902 -1.9869161 -2.3157759 -0.5299065 -2.5474458 -0.5306131 -1.8071332 0.9044481 1.0363337 2.5636263
d8 1.4556316 2.066323 0.1354489 -1.3905603 2.811213 0.55943793 0.8728908 -0.29182014 0.44358972 -1.0994338 0.26507473 1.613317 -0.6455653 -1.8552668 -1.9900352 -0.602277 -0.8098231 1.719981 -0.17349434 0.094107114 -1.4778594 -0.29108825 -1.8582398 0.46134052 0.2709351 -1.0363622 0.22659498 1.1213651 1.5068572 3.2604825 0.65895873 0.51639605 -1.4572321 4.275376 0.035226677 -1.3634968 0.8643278 0.11044552 -0.23344912 -1.6403279 -0.63870555 -1.0733467 -2.5439818 -2.5212796 0.45807827 0.3170157 1.263682 -1.7198937 1.2119508 0.9550915 -1.7518238 1.0738171 -0.68312496 -3.4071739 2.6583834 -0.7094957 2.4651728 -2.0205564 1.7345691 -0.009105626 0.14187665 2.493875 0.8978798 -3.548773 -0.37591764 -0.6428926 3.1244483 -1.61518 2.334773 1.4845557 1.7918421 -0.54657376 -1.8219639 -2.4904902 1.5699548 0.17459056 -0.038723927 0.78388095 0.3341069 -1.0096792 -1.065116 -0.5779288 -1.5014669 2.811779 -2.4780421 1.4763047 1.0259718 1.3862379 -0.5090948 0.17843147 1.2679651 0.82891077 -0.18574938 0.7798516 0.8035374 1.6935111 -1.447193 -0.4670365 -0.3457833 -0.44919777
09 -3.3315642 0.74121815 -1.7281684 -3.1857426 -2.3484716 -2.9173977 0.10259468 -1.3866277 -0.77693146 -1.6074414 0.5946022 0.022376196 -2.2500732 -1.8286585 0.45044976 -3.5213082 -1.3836508 -0.7008115 -2.4327774 -3.7680757 3.615398 -1.6692303 -2.018908 -1.969638 1.1027386 1.7512598 -0.30739024 -2.8367596 0.797066 -0.06864022 -1.3114024 -0.39286032 -3.2598124 0.96330833 2.5682447 3.1023223 1.8967603 -0.43782425 -0.86798054 1.1870296 0.38024068 -2.2299805 3.0447552 3.0061264 -0.99738485 -2.0422564 -0.6192253 0.6153004 0.18256874 0.7608316 1.2519615 1.4727187 -0.90090096 -0.5790257 -0.7608046 -1.2091739 1.6342534 3.2189434 -1.5954884 -1.535269 -2.5031269 -0.09230897 -5.3751054 1.4161508 0.24302836 -3.4950306 -0.6278883 0.56515104 -5.8665843 0.79422814 0.00782617 -0.25346458 3.0947042 0.35557932 -3.1525517 3.4118328 4.0889792 3.0086427 -0.10841418 -2.8127744 0.8603403 -0.4037414 1.9805607 -2.3482742 -0.44455084 6.48989 0.81977844 -1.4580576 2.7161183 0.28358504 1.3147508 2.0032656 4.0363927 1.212451 3.2997282 4.984281 -1.6037352 -0.8848518 1.6519197 -2.9125893
8c 1.2752662 -0.8651746 1.2564188 -0.20249796 1.1543375 0.39993355 1.6357777 -1.6727118 -1.6167153 -1.0833305 1.0389458 -1.0309733 1.2509469 -2.457396 2.7650294 1.7750024 0.11962474 -1.8227494 1.9224558 1.2163221 2.1807735 0.57451427 -0.0658668 -0.5544656 -2.2783792 -2.0165284 -0.9370345 0.7471374 1.1998315 -0.53801286 2.5771623 -1.0033252 -0.124102645 -0.6223709 -0.2581411 -3.3701456 -0.99957615 -1.0850062 1.2402971 0.9310933 -0.46477062 -1.3303262 1.0889443 -0.731851 -0.65159196 0.042729475 -0.56638175 1.9721047 -2.8973444 -1.2353758 0.96395254 -0.75534844 0.43628904 0.22719182 -1.4843857 0.81010026 0.9583755 0.36404762 -0.30096605 0.15535733 -0.3032922 -0.35531422 0.8328768 0.3842948 1.1328385 1.0913838 -1.0707179 0.74922425 -1.8174425 0.37996957 0.27624065 0.6714478 -0.22799255 -3.1633055 0.8514322 -2.2573838 -2.885567 1.1789252 -0.25176343 -1.0268825 -1.4820457 -1.7681614 1.1377717 -1.8154523 0.80003536 0.12658763 -1.006748 0.9707655 -1.3853066 -1.8998634 0.044831045 0.98517424 0.15902367 -0.17147753 0.47015244 0.39141044 2.0209873 1.2599572 1.124926 2.7203372
f7 2.4495547 -3.8102849 1.1429188 1.870523 1.2760253 2.059601 0.9215411 0.0014535247 3.471261 0.12959313 -0.61274713 0.20143685 -1.7008262 -1.1016132 0.94328016 0.5196938 -0.34635866 -0.32395437 2.68662 1.264307 3.336089 -1.4935188 5.281229 3.1307008 1.1537626 -0.42695618 -2.9495018 5.727594 0.79155934 2.3050709 1.2998278 2.6160724 0.23779722 -2.1757812 2.2582908 0.9485104 -0.6923061 0.7130549 0.7662755 1.9668543 1.9716505 0.21864827 0.41725194 -2.3985357 -1.075302 0.41288495 -0.8941776 -1.24158 -1.842819 -2.138361 0.014916966 1.3287809 0.36296046 0.3969588 -1.1704457 1.6234902 -0.8346217 1.8204185 1.2642748 -0.7639699 -3.350907 0.5371025 -2.203303 1.131112 -1.0888145 0.9249355 1.1309928 -2.2628603 -2.9800048 -0.5785771 -4.5828843 2.894251 -0.4961863 -3.6425724 -3.6800625 2.6397257 -3.0480368 -0.17679918 0.5525807 0.014245375 -0.48499444 0.9069274 -2.6655905 -1.9303341 2.879529 -1.5162313 1.6689402 0.9442468 1.6316234 0.6397831 0.4394909 -1.7909665 0.9980595 -0.96207494 -2.7148654 2.264429 -1.6957977 1.044121 1.4037169 -0.7801196
4c 0.20170212 -3.202417 2.2855463 3.1031206 1.1405153 -0.9138435 -0.07208629 1.9227129 0.8978009 0.9629331 -0.07677076 -3.3145783 -0.60489875 -0.9614539 -4.4037313 3.6293285 4.138408 1.4271592 -0.6872516 -1.0323365 1.311583 3.7685626 1.8216717 -0.53673404 -4.272369 0.7735127 -2.7207422 -0.14436476 0.44027498 1.7938948 -0.29403487 0.9239452 1.3041332 1.0045804 0.19360673 0.48225993 -2.0483592 -1.1804276 -0.7733922 -1.1013557 -0.5890897 -1.0521 -2.747578 2.3927152 -0.1199284 -0.76932186 -1.5299021 0.29614273 1.1559206 1.3851149 -1.0062287 1.9638335 0.30344564 0.8744307 0.47850335 -0.42206436 3.2365177 0.3072951 -0.31855288 0.44959998 -2.619173 -0.83458894 1.2737585 -2.7130346 2.7099285 1.9614351 1.1069869 -0.8891918 -2.4696984 1.2636873 -0.8897893 0.41995594 0.5609995 1.4934677 -0.5363657 -0.89223355 -2.4060323 -1.2180532 2.312898 0.66857344 -1.0366307 -1.3144873 -0.5795723 -0.30016118 4.103454 -0.17241815 1.9504322 -1.1886451 -2.0412185 -1.8542926 -2.6491394 -1.6467693 -0.80169564 4.9576445 2.322667 0.8270152 -2.4464347 -1.7385299 -3.7054048 0.5768394
65 -0.6950912 4.0252495 -0.017814787 -3.03536 1.3033892 -0.058277875 2.9149299 -5.1057053 -1.2085334 0.64031065 -1.4697574 -1.6843123 -2.4332402 -1.9048189 -1.9181279 -0.95179456 2.009444 1.1694729 -3.070972 3.1013818 -0.99184984 -3.3331957 -1.6019922 -3.0724657 2.7573779 -1.8984774 -0.6959815 1.4064248 1.4414306 0.37483442 -0.89589375 -0.029201476 1.436144 -3.1799595 -1.1699637 -3.2115295 -0.020700138 -1.3517482 -3.3341067 3.1236613 -3.8865614 -2.9928153 4.084732 0.33121607 -1.9961156 -0.16626625 -1.9969368 -3.1421058 -0.242871 2.736072 -3.1944716 -1.2870687 -1.9676113 -2.7866838 -2.787174 -3.0186257 2.319907 0.6280774 1.8240768 3.8094265 0.23196192 0.6680806 2.1618917 -4.0449624 -1.3722275 -1.1005499 -1.193782 -1.2929382 0.58181083 1.2137885 0.28171012 -0.3942308 0.8512491 -1.4590555 -2.2642064 2.3279395 -3.5685275 -0.94519615 -3.7071035 -0.46038443 2.3055022 -3.8945696 1.4353892 0.6537172 2.2271512 -0.6912169 -5.377579 -1.5155745 -0.7874571 2.5109947 -0.1779798 3.570473 -0.2875358 -2.4302113 -0.08241585 3.3234692 2.5366445 -4.068682 1.7692543 -3.341889
bb -1.5601058 -1.1294248 0.4677367 -0.8295092 3.2671342 -1.114217 3.3339615 -0.8601369 2.9175787 -1.0648121 -0.22617677 3.0263946 0.42841294 2.9471939 1.6556554 0.78480995 -1.1386042 -2.8091455 0.25727114 -1.7766762 0.43365756 -2.50553 -0.55147564 2.7478838 -0.3126387 -1.7490047 -3.493993 1.9719976 0.94308364 1.9849643 -1.199012 1.367077 2.4613779 -1.2980368 -0.8042449 -8.194734 0.24770671 0.8133238 -0.52385795 -1.5653753 0.49123242 -1.1043118 0.52446467 -4.54583 0.09676024 2.9596553 -1.4479884 -2.1187205 -0.68689746 -1.0165684 0.065049276 1.4711512 -3.09374 -0.90364575 1.7706529 0.31697467 -1.0355738 -0.4328711 -1.5915812 0.9065825 -0.26533067 3.006648 0.1371124 -0.10824698 -2.8196948 2.364309 -1.8850943 -2.4196079 -0.7358926 0.43502346 3.6147137 -3.6510813 4.8878193 -0.7309224 -0.6168243 -1.2524523 -2.404183 -0.46941411 -4.0437756 3.1383593 -1.936734 0.12510766 -2.0134337 -1.2000995 -0.9287784 -3.2058005 2.3934453 -0.14958134 1.1104274 -0.9977381 0.7376174 0.9635218 -2.7154105 3.0171432 1.4241127 3.907367 0.3093153 0.6981048 -0.40874705 3.104826
31 1.752618 -0.8713644 0.48905003 1.5196657 0.79166067 0.87415147 -1.7514597 0.121532395 -1.0110745 -0.05316489 -1.0217315 0.36685133 0.31040597 0.8867441 3.41881 -0.87940145 -2.4854016 0.989686 -4.3708835 -3.0770698 0.9619187 -1.176355 -1.3714063 -2.6300602 -2.692941 -0.38570565 -2.3563564 1.9842252 -1.8705696 -1.6243598 1.9536878 0.1143599 3.4934769 -1.2883084 -1.3526698 -1.5917156 -0.7466276 0.31112972 -0.14186536 0.21325678 0.34634212 -0.2903707 0.7485468 2.2526073 -0.49402475 -1.0690808 1.1188339 1.9929163 1.7977659 -0.46044958 -0.24945837 0.73948574 1.4470421 -1.4189554 -0.8732024 -1.179497 3.8212721 0.7653824 2.7216525 0.3316372 0.5864716 3.5615616 0.29315165 1.6923151 -0.24729556 1.5615284 0.96182835 -4.007356 -0.049302865 -1.3049116 -1.692419 -2.266463 -0.90947706 -1.2588549 -0.5927815 -0.052795585 -0.49533963 -1.698782 3.1901221 -1.2961059 -0.7777486 0.0029862707 -0.80641913 1.5891346 -0.02775324 0.2612452 -1.280902 -0.64465165 2.7882452 0.8791455 2.0221229 -1.7355739 -3.595649 0.48262683 -2.6529355 1.9333752 1.5662426 -1.6429896 -0.25109914 0.49434796
cc -2.1336963 -0.34529728 -1.4597728 -1.1787895 0.7804748 0.41809478 -1.9598933 0.9171786 -0.1100368 -4.182947 0.5986824 -0.31156865 -2.10309 -0.64784586 1.8366781 1.6580623 0.63259524 0.2938214 -1.3089712 0.05901978 1.7213017 -0.62649137 1.2017432 0.0012157679 -1.4790173 -2.3231404 -1.5075924 3.5343876 3.0936084 3.696642 0.64077955 0.1939371 0.82594407 0.63222224 0.6592756 -0.8565959 -1.1530153 -0.1996346 0.99358416 -2.3851075 -1.2688457 0.7337451 -1.0388033 -0.78741527 -0.8396175 -1.1822072 1.5949217 2.9767506 -1.561437 -1.7518051 1.518562 0.80321294 2.7789629 -0.33442014 -0.03432615 -0.28651083 0.3332399 -0.57022566 4.6628175 0.8907247 -3.2435539 0.7437873 0.16536005 -0.4318772 -0.35029906 1.205313 0.20704213 -3.4527314 0.9545536 2.311655 -0.7962896 0.083310924 0.7982181 -2.0800123 -1.8370346 1.4249935 -1.1610765 -0.29252866 -0.21843852 -1.2034689 -1.4105725 0.2145713 -1.0667198 0.28673583 -2.8205676 -0.5635517 0.30146882 -1.5409589 1.1075766 -0.76569396 2.8107834 0.9397991 -1.047581 0.21519777 -0.63538855 2.479265 -3.108934 2.779469 -0.45802262 0.16288775
e3 -2.423677 2.2362278 0.073642924 -0.41999695 -0.73339903 -1.1278255 -0.48129725 -2.4533014 0.020315949 0.24146695 0.9794106 -0.34798795 -1.7074239 -1.0951487 0.49153167 -1.009139 -0.117977336 2.256023 1.542465 -0.324583 1.5650932 0.018774677 -0.44660223 3.2443104 0.80051345 1.921176 -0.16738252 1.6644018 -1.5317988 0.6297316 -0.44575 0.5490283 -2.463009 1.5431705 0.14982678 1.9569244 0.60203373 1.3566082 -1.4399005 -0.6619832 2.444264 -0.1761598 -0.07416336 0.25161687 -1.2249725 0.2953433 -1.8574986 0.82796854 2.5438106 -0.32651287 -0.2897607 1.8313732 0.8096388 1.2821885 -0.56296724 3.7571409 -1.5618889 2.082243 -2.3454115 -1.7318231 0.72973704 -1.0146936 -3.1154335 1.2431566 0.0951952 -4.9082675 -1.475211 2.8423908 -0.6946952 1.1205595 -0.071739174 0.027628794 0.14128631 0.22502306 -2.7031763 1.5914342 1.220036 1.0554051 2.51191 -2.2799792 -2.5496423 0.34413505 0.9109237 -1.549653 -0.23624009 1.696766 2.7391558 -0.22712588 1.3236274 0.55152005 -0.9251382 2.181989 1.1125782 -0.8388099 3.9096003 2.2325673 0.5792515 1.6801889 -3.4461005 -0.16585545
06 -2.5188878 2.366423 -1.114222 -2.9089177 -1.8011092 -1.7367921 1.1103584 -1.9823605 -0.86872685 -2.254518 0.34094852 0.81732345 -1.8283857 -1.9250311 1.0448197 -2.8129961 -1.0648628 -1.6034821 -0.7976127 -0.56499386 1.6297548 0.4310308 -2.4049413 -1.1281419 2.2778244 1.5192852 2.1301165 0.63767815 0.43564412 0.16876836 -1.4986218 -0.23961054 -2.8664496 2.6196342 3.0094383 0.726957 0.52372247 0.23817797 -1.0357594 1.1902626 -0.088780314 -0.08073495 1.7391691 1.6685071 -1.0785547 -0.9863619 -0.04293181 0.16785866 -0.5167859 0.2835615 1.3294734 0.2976706 -1.9700481 -1.8551233 0.27674115 0.43619344 1.3310977 2.0039923 -2.2600567 -3.8796635 -0.58839566 0.66498625 -2.8326557 1.6298788 -0.32835498 -3.4820015 -0.76079875 1.082565 -2.0645835 -0.50493795 1.194449 1.4364625 1.36191 -0.35614324 -1.9821163 1.6479646 2.5542362 3.1151965 -0.12526424 -1.8607601 -0.2559726 -0.6370535 1.2197297 -0.9611142 0.0654889 5.0496345 0.12609604 -0.822912 0.5611956 0.76386684 0.2465351 3.3289704 2.7252753 -1.7930342 2.3503728 2.1790018 2.4944935 -0.42109615 -0.8503763 -0.766464
fa 0.3490823 0.10135195 -2.8402333 -2.4329534 -1.3856719 2.5494926 -0.5727256 -1.8377763 -1.1121438 -0.9250407 1.4165525 2.2397778 -1.9868355 -1.1458974 0.04573453 0.17789963 -0.61675686 -0.33038005 -2.0272202 -0.09026566 -2.8147485 2.3655581 -2.7903328 0.18618616 -0.058419682 -0.55441254 -0.23842978 1.0240598 -0.20648392 -3.180436 0.6453344 -1.1945764 -1.3297879 1.4795336 -0.7950171 -1.3624239 0.013441805 1.2133138 -2.2000678 0.06674613 1.2830025 2.503447 1.068483 1.4040344 -2.591414 -0.37874264 -1.7432119 2.5602164 -1.1221614 1.2203707 2.0734656 2.7884688 -0.5304911 2.0090446 1.2597795 -0.95393616 0.19064769 -0.7613459 -0.59352505 -0.43983084 -0.5408231 -2.2909367 -1.8489866 2.1655753 -0.6975097 -1.3727908 -0.5291895 -0.28845155 0.42549106 0.74342465 -0.33283633 -0.3920654 0.703959 2.740286 -2.1481202 1.8731936 2.1067612 2.3393307 0.75823736 -1.4742485 1.687519 -0.20807736 1.4065629 -1.3923903 -0.7512263 -1.1379821 0.40285072 -2.1207376 1.7384093 -2.5395913 0.37360558 2.3876266 -0.3595522 -2.0736554 1.4832404 1.0661554 0.77723634 2.0915704 -3.194222 -0.117535636
df 1.6695172 -3.0900981 -1.2869726 -0.2658267 -0.22425897 1.3582642 0.70352703 1.5028003 1.1434795 -1.6758173 1.7157896 2.4618537 1.0622175 3.071114 -1.425664 3.7728796 2.6271746 -2.979752 -0.545398 -0.6905478 2.2163901 -0.8078922 -2.0851376 3.5501397 -0.88104045 -4.905419 -1.6581533 -1.8596239 1.7683477 0.3407477 -2.3154795 -0.0018989223 -1.8661308 -1.0893893 -0.010466221 1.1192424 -1.9038733 -0.9541452 0.6921821 0.22812213 1.1742008 -0.27381316 -0.12288481 -1.655525 -1.4735976 1.1878171 -1.6445752 1.7261153 -0.27208394 0.37801996 -0.4825399 3.3881626 1.7674735 1.9711478 1.5992825 -1.3347446 -2.5681 -2.39825 0.54320395 1.4418288 -2.0481858 -0.98909646 -3.0744698 -0.9157212 -0.38575718 0.24582449 1.6917297 -2.355244 -0.6489333 3.1191592 3.7310176 -2.4482062 4.49958 0.44165552 -0.7502148 0.31147343 -2.4147224 0.7637307 -1.6381922 2.6945267 0.2507968 0.78255963 -0.020333067 -0.02296123 -0.065237865 -2.4641657 2.8685403 1.7320333 0.7547421 -0.7989722 1.2959096 -0.8940579 1.8337386 3.24329 2.0275404 1.1671226 -2.672357 1.7652885 -2.05025 -0.6469416
